[
  { "nodeid": 0, "depth": 0, "split": "F1_0", "split_condition": 3, "yes": 1, "no": 2, "missing": 2 , "gain": 19510.0625, "cover": 11941.9678, "children": [
    { "nodeid": 1, "depth": 1, "split": "F15", "split_condition": 0.00999999978, "yes": 3, "no": 4, "missing": 4 , "gain": 1642.11133, "cover": 6891.23633, "children": [
      { "nodeid": 3, "depth": 2, "split": "F1_23", "split_condition": 2, "yes": 7, "no": 8, "missing": 8 , "gain": 1405.52014, "cover": 3480.05933, "children": [
        { "nodeid": 7, "depth": 3, "split": "F1_14", "split_condition": 2, "yes": 13, "no": 14, "missing": 14 , "gain": 234.640137, "cover": 2168.81177, "children": [
          { "nodeid": 13, "depth": 4, "split": "F9", "split_condition": 87, "yes": 25, "no": 26, "missing": 26 , "gain": 47.7653809, "cover": 1232.94946, "children": [
            { "nodeid": 25, "depth": 5, "split": "F1_6", "split_condition": 67, "yes": 49, "no": 50, "missing": 50 , "gain": 37.3084717, "cover": 806.769165, "children": [
              { "nodeid": 49, "leaf": -0.380686432 , "cover": 796.858032 }, 
              { "nodeid": 50, "leaf": 0.189301535 , "cover": 9.91116905 }
            ]}, 
            { "nodeid": 26, "depth": 5, "split": "F3", "split_condition": 0.167479679, "yes": 51, "no": 52, "missing": 52 , "gain": 15.8760986, "cover": 426.180298, "children": [
              { "nodeid": 51, "leaf": -0.513665676 , "cover": 404.375702 }, 
              { "nodeid": 52, "leaf": -0.234860703 , "cover": 21.8045731 }
            ]}
          ]}, 
          { "nodeid": 14, "depth": 4, "split": "F1_24", "split_condition": 19, "yes": 27, "no": 28, "missing": 28 , "gain": 124.569122, "cover": 935.862183, "children": [
            { "nodeid": 27, "depth": 5, "split": "F9", "split_condition": 133, "yes": 53, "no": 54, "missing": 54 , "gain": 96.3532715, "cover": 900.181946, "children": [
              { "nodeid": 53, "leaf": -0.197403386 , "cover": 761.425598 }, 
              { "nodeid": 54, "leaf": -0.469266534 , "cover": 138.756378 }
            ]}, 
            { "nodeid": 28, "depth": 5, "split": "F1_12", "split_condition": 12, "yes": 55, "no": 56, "missing": 56 , "gain": 24.0735779, "cover": 35.6802101, "children": [
              { "nodeid": 55, "leaf": 0.514988959 , "cover": 21.8045731 }, 
              { "nodeid": 56, "leaf": 0.0128869396 , "cover": 13.8756371 }
            ]}
          ]}
        ]}, 
        { "nodeid": 8, "depth": 3, "split": "F4", "split_condition": 0.142857149, "yes": 15, "no": 16, "missing": 16 , "gain": 336.122955, "cover": 1311.24768, "children": [
          { "nodeid": 15, "depth": 4, "split": "F9", "split_condition": 6, "yes": 29, "no": 30, "missing": 30 , "gain": 275.392212, "cover": 839.723816, "children": [
            { "nodeid": 29, "depth": 5, "split": "F1_1", "split_condition": 16, "yes": 57, "no": 58, "missing": 58 , "gain": 142.424301, "cover": 601.360229, "children": [
              { "nodeid": 57, "leaf": -0.0327691808 , "cover": 438.817017 }, 
              { "nodeid": 58, "leaf": 0.295177221 , "cover": 162.543182 }
            ]}, 
            { "nodeid": 30, "depth": 5, "split": "F1_97", "split_condition": 4, "yes": 59, "no": 60, "missing": 60 , "gain": 60.0820923, "cover": 238.363617, "children": [
              { "nodeid": 59, "leaf": -0.362082541 , "cover": 224.240204 }, 
              { "nodeid": 60, "leaf": 0.261570483 , "cover": 14.1234159 }
            ]}
          ]}, 
          { "nodeid": 16, "depth": 4, "split": "F1_9", "split_condition": 4, "yes": 31, "no": 32, "missing": 32 , "gain": 125.724731, "cover": 471.523895, "children": [
            { "nodeid": 31, "depth": 5, "split": "F12", "split_condition": 0.909090936, "yes": 61, "no": 62, "missing": 62 , "gain": 77.7065125, "cover": 80.7760315, "children": [
              { "nodeid": 61, "leaf": 0.17072168 , "cover": 47.3258324 }, 
              { "nodeid": 62, "leaf": -0.41919747 , "cover": 33.4501953 }
            ]}, 
            { "nodeid": 32, "depth": 5, "split": "F9", "split_condition": 129, "yes": 63, "no": 64, "missing": 64 , "gain": 85.7065735, "cover": 390.747864, "children": [
              { "nodeid": 63, "leaf": 0.368707299 , "cover": 368.943268 }, 
              { "nodeid": 64, "leaf": -0.234860703 , "cover": 21.8045731 }
            ]}
          ]}
        ]}
      ]}, 
      { "nodeid": 4, "depth": 2, "split": "F3", "split_condition": 0.106382981, "yes": 9, "no": 10, "missing": 10 , "gain": 301.897461, "cover": 3411.17676, "children": [
        { "nodeid": 9, "depth": 3, "split": "F1_3", "split_condition": 23, "yes": 17, "no": 18, "missing": 18 , "gain": 32.4296875, "cover": 2992.18213, "children": [
          { "nodeid": 17, "depth": 4, "split": "F1_19", "split_condition": 14, "yes": 33, "no": 34, "missing": 34 , "gain": 42.402832, "cover": 1479.98535, "children": [
            { "nodeid": 33, "depth": 5, "split": "F1_88", "split_condition": 20, "yes": 65, "no": 66, "missing": 66 , "gain": 14.560791, "cover": 1201.97705, "children": [
              { "nodeid": 65, "leaf": -0.503549159 , "cover": 1197.26929 }, 
              { "nodeid": 66, "leaf": 0.020780839 , "cover": 4.70780563 }
            ]}, 
            { "nodeid": 34, "depth": 5, "split": "F4", "split_condition": 0.0897435918, "yes": 67, "no": 68, "missing": 68 , "gain": 48.681427, "cover": 278.008301, "children": [
              { "nodeid": 67, "leaf": -0.459655315 , "cover": 181.126617 }, 
              { "nodeid": 68, "leaf": -0.193317369 , "cover": 96.8816833 }
            ]}
          ]}, 
          { "nodeid": 18, "depth": 4, "split": "F9", "split_condition": 3, "yes": 35, "no": 36, "missing": 36 , "gain": 13.2768555, "cover": 1512.19666, "children": [
            { "nodeid": 35, "depth": 5, "split": "F1_2", "split_condition": 2, "yes": 69, "no": 70, "missing": 70 , "gain": 13.0211887, "cover": 4.70780563, "children": [
              { "nodeid": 69, "leaf": 0.440307617 , "cover": 1.98223388 }, 
              { "nodeid": 70, "leaf": -0.401143104 , "cover": 2.72557163 }
            ]}, 
            { "nodeid": 36, "depth": 5, "split": "F15", "split_condition": 0.0700000003, "yes": 71, "no": 72, "missing": 72 , "gain": 6.94384766, "cover": 1507.48889, "children": [
              { "nodeid": 71, "leaf": -0.0899715498 , "cover": 3.46890926 }, 
              { "nodeid": 72, "leaf": -0.544368386 , "cover": 1504.0199 }
            ]}
          ]}
        ]}, 
        { "nodeid": 10, "depth": 3, "split": "F1_21", "split_condition": 3, "yes": 19, "no": 20, "missing": 20 , "gain": 179.995636, "cover": 418.99469, "children": [
          { "nodeid": 19, "depth": 4, "split": "F1_70", "split_condition": 6, "yes": 37, "no": 38, "missing": 38 , "gain": 21.9315491, "cover": 256.947052, "children": [
            { "nodeid": 37, "depth": 5, "split": "F1_11", "split_condition": 67, "yes": 73, "no": 74, "missing": 74 , "gain": 20.2165527, "cover": 254.469269, "children": [
              { "nodeid": 73, "leaf": -0.41083625 , "cover": 251.743698 }, 
              { "nodeid": 74, "leaf": 0.32357794 , "cover": 2.72557163 }
            ]}, 
            { "nodeid": 38, "leaf": 0.385697395 , "cover": 2.47779226 }
          ]}, 
          { "nodeid": 20, "depth": 4, "split": "F12", "split_condition": 5.090909, "yes": 39, "no": 40, "missing": 40 , "gain": 110.518997, "cover": 162.047623, "children": [
            { "nodeid": 39, "depth": 5, "split": "F1_6", "split_condition": 21, "yes": 75, "no": 76, "missing": 76 , "gain": 42.0173988, "cover": 97.6250153, "children": [
              { "nodeid": 75, "leaf": -0.262640148 , "cover": 85.979393 }, 
              { "nodeid": 76, "leaf": 0.325366616 , "cover": 11.6456242 }
            ]}, 
            { "nodeid": 40, "depth": 5, "split": "F5", "split_condition": 0.0130434781, "yes": 77, "no": 78, "missing": 78 , "gain": 39.6524124, "cover": 64.4225998, "children": [
              { "nodeid": 77, "leaf": -0.236450285 , "cover": 9.41561127 }, 
              { "nodeid": 78, "leaf": 0.409565538 , "cover": 55.0069885 }
            ]}
          ]}
        ]}
      ]}
    ]}, 
    { "nodeid": 2, "depth": 1, "split": "F1_0", "split_condition": 26, "yes": 5, "no": 6, "missing": 6 , "gain": 10127.251, "cover": 5050.73193, "children": [
      { "nodeid": 5, "leaf": 0.660487652 , "cover": 4037.31494 }, 
      { "nodeid": 6, "depth": 2, "split": "F1_18", "split_condition": 6, "yes": 11, "no": 12, "missing": 12 , "gain": 205.728516, "cover": 1013.41705, "children": [
        { "nodeid": 11, "depth": 3, "split": "F1_10", "split_condition": 67, "yes": 21, "no": 22, "missing": 22 , "gain": 43.8825684, "cover": 788.681335, "children": [
          { "nodeid": 21, "depth": 4, "split": "F1_15", "split_condition": 22, "yes": 41, "no": 42, "missing": 42 , "gain": 23.6209717, "cover": 781.247925, "children": [
            { "nodeid": 41, "depth": 5, "split": "F1_5", "split_condition": 71, "yes": 79, "no": 80, "missing": 80 , "gain": 15.6118164, "cover": 771.832336, "children": [
              { "nodeid": 79, "leaf": -0.487889916 , "cover": 767.620056 }, 
              { "nodeid": 80, "leaf": 0.0748886168 , "cover": 4.21224689 }
            ]}, 
            { "nodeid": 42, "depth": 5, "split": "F1_1", "split_condition": 17, "yes": 81, "no": 82, "missing": 82 , "gain": 12.4210339, "cover": 9.41561127, "children": [
              { "nodeid": 81, "leaf": 0.321330965 , "cover": 4.46002626 }, 
              { "nodeid": 82, "leaf": -0.3051337 , "cover": 4.95558453 }
            ]}
          ]}, 
          { "nodeid": 22, "depth": 4, "split": "F6", "split_condition": 0.503448248, "yes": 43, "no": 44, "missing": 44 , "gain": 12.9737768, "cover": 7.43337727, "children": [
            { "nodeid": 43, "leaf": 0.4938173 , "cover": 4.70780563 }, 
            { "nodeid": 44, "depth": 5, "split": "F1_3", "split_condition": 16, "yes": 83, "no": 84, "missing": 84 , "gain": 0.614188433, "cover": 2.72557163, "children": [
              { "nodeid": 83, "leaf": -0.0354247689 , "cover": 1.23889613 }, 
              { "nodeid": 84, "leaf": -0.327817172 , "cover": 1.48667538 }
            ]}
          ]}
        ]}, 
        { "nodeid": 12, "depth": 3, "split": "F1_1", "split_condition": 24, "yes": 23, "no": 24, "missing": 24 , "gain": 194.893295, "cover": 224.735764, "children": [
          { "nodeid": 23, "depth": 4, "split": "F9", "split_condition": 79, "yes": 45, "no": 46, "missing": 46 , "gain": 84.5740814, "cover": 101.093925, "children": [
            { "nodeid": 45, "depth": 5, "split": "F1_8", "split_condition": 4, "yes": 85, "no": 86, "missing": 86 , "gain": 35.2025604, "cover": 78.2982407, "children": [
              { "nodeid": 85, "leaf": -0.121168546 , "cover": 13.6278582 }, 
              { "nodeid": 86, "leaf": 0.40109247 , "cover": 64.6703796 }
            ]}, 
            { "nodeid": 46, "depth": 5, "split": "F4", "split_condition": 0.138888896, "yes": 87, "no": 88, "missing": 88 , "gain": 14.5899696, "cover": 22.7956905, "children": [
              { "nodeid": 87, "leaf": -0.46828869 , "cover": 17.0967674 }, 
              { "nodeid": 88, "leaf": 0.0709312782 , "cover": 5.69892263 }
            ]}
          ]}, 
          { "nodeid": 24, "depth": 4, "split": "F4", "split_condition": 0.375, "yes": 47, "no": 48, "missing": 48 , "gain": 46.9574127, "cover": 123.641838, "children": [
            { "nodeid": 47, "depth": 5, "split": "F4", "split_condition": 0.126760557, "yes": 89, "no": 90, "missing": 90 , "gain": 12.5845642, "cover": 114.969566, "children": [
              { "nodeid": 89, "leaf": -0.492979556 , "cover": 95.6427841 }, 
              { "nodeid": 90, "leaf": -0.21140945 , "cover": 19.3267803 }
            ]}, 
            { "nodeid": 48, "depth": 5, "split": "F1_13", "split_condition": 15, "yes": 91, "no": 92, "missing": 92 , "gain": 16.1334782, "cover": 8.67227364, "children": [
              { "nodeid": 91, "leaf": 0.518764555 , "cover": 5.69892263 }, 
              { "nodeid": 92, "leaf": -0.259315073 , "cover": 2.97335076 }
            ]}
          ]}
        ]}
      ]}
    ]}
  ]},
  { "nodeid": 0, "depth": 0, "split": "F1_0", "split_condition": 3, "yes": 1, "no": 2, "missing": 2 , "gain": 10337.1094, "cover": 11182.4375, "children": [
    { "nodeid": 1, "depth": 1, "split": "F15", "split_condition": 0.00999999978, "yes": 3, "no": 4, "missing": 4 , "gain": 1029.21924, "cover": 6401.83105, "children": [
      { "nodeid": 3, "depth": 2, "split": "F1_19", "split_condition": 1, "yes": 7, "no": 8, "missing": 8 , "gain": 804.115234, "cover": 3329.99609, "children": [
        { "nodeid": 7, "depth": 3, "split": "F1_9", "split_condition": 67, "yes": 15, "no": 16, "missing": 16 , "gain": 130.676758, "cover": 1646.81274, "children": [
          { "nodeid": 15, "depth": 4, "split": "F9", "split_condition": 87, "yes": 29, "no": 30, "missing": 30 , "gain": 50.4273682, "cover": 1620.41699, "children": [
            { "nodeid": 29, "depth": 5, "split": "F1_1", "split_condition": 16, "yes": 55, "no": 56, "missing": 56 , "gain": 50.913147, "cover": 1162.17505, "children": [
              { "nodeid": 55, "leaf": -0.300475955 , "cover": 854.005859 }, 
              { "nodeid": 56, "leaf": -0.157354146 , "cover": 308.16922 }
            ]}, 
            { "nodeid": 30, "depth": 5, "split": "F3", "split_condition": 0.255319148, "yes": 57, "no": 58, "missing": 58 , "gain": 24.5413208, "cover": 458.241943, "children": [
              { "nodeid": 57, "leaf": -0.392414063 , "cover": 446.612213 }, 
              { "nodeid": 58, "leaf": 0.0453338251 , "cover": 11.629735 }
            ]}
          ]}, 
          { "nodeid": 16, "depth": 4, "split": "F1_10", "split_condition": 23, "yes": 31, "no": 32, "missing": 32 , "gain": 32.9431458, "cover": 26.3957157, "children": [
            { "nodeid": 31, "depth": 5, "split": "F1_3", "split_condition": 20, "yes": 59, "no": 60, "missing": 60 , "gain": 5.61530161, "cover": 11.9522762, "children": [
              { "nodeid": 59, "leaf": -0.11830198 , "cover": 9.36424541 }, 
              { "nodeid": 60, "leaf": 0.31716162 , "cover": 2.58803129 }
            ]}, 
            { "nodeid": 32, "depth": 5, "split": "F1_13", "split_condition": 61, "yes": 61, "no": 62, "missing": 62 , "gain": 2.11148071, "cover": 14.4434385, "children": [
              { "nodeid": 61, "leaf": 0.690892458 , "cover": 13.2389746 }, 
              { "nodeid": 62, "leaf": 0.132978812 , "cover": 1.2044642 }
            ]}
          ]}
        ]}, 
        { "nodeid": 8, "depth": 3, "split": "F9", "split_condition": 155, "yes": 17, "no": 18, "missing": 18 , "gain": 385.565826, "cover": 1683.18347, "children": [
          { "nodeid": 17, "depth": 4, "split": "F10", "split_condition": 0.797927439, "yes": 33, "no": 34, "missing": 34 , "gain": 184.972214, "cover": 1499.17566, "children": [
            { "nodeid": 33, "depth": 5, "split": "F1_6", "split_condition": 2, "yes": 63, "no": 64, "missing": 64 , "gain": 100.963379, "cover": 1167.23364, "children": [
              { "nodeid": 63, "leaf": -0.237121478 , "cover": 137.52774 }, 
              { "nodeid": 64, "leaf": 0.0356621854 , "cover": 1029.70593 }
            ]}, 
            { "nodeid": 34, "depth": 5, "split": "F4", "split_condition": 0.145772591, "yes": 65, "no": 66, "missing": 66 , "gain": 132.594635, "cover": 331.941956, "children": [
              { "nodeid": 65, "leaf": -0.10249196 , "cover": 71.9404373 }, 
              { "nodeid": 66, "leaf": 0.356291354 , "cover": 260.001526 }
            ]}
          ]}, 
          { "nodeid": 18, "depth": 4, "split": "F1_9", "split_condition": 67, "yes": 35, "no": 36, "missing": 36 , "gain": 23.3279724, "cover": 184.007767, "children": [
            { "nodeid": 35, "depth": 5, "split": "F1_74", "split_condition": 58, "yes": 67, "no": 68, "missing": 68 , "gain": 10.4341431, "cover": 176.989655, "children": [
              { "nodeid": 67, "leaf": -0.428019971 , "cover": 175.312897 }, 
              { "nodeid": 68, "leaf": 0.222273812 , "cover": 1.67676067 }
            ]}, 
            { "nodeid": 36, "depth": 5, "split": "F10", "split_condition": 0.830769241, "yes": 69, "no": 70, "missing": 70 , "gain": 16.9302616, "cover": 7.0181098, "children": [
              { "nodeid": 69, "leaf": -0.353956819 , "cover": 3.00074863 }, 
              { "nodeid": 70, "leaf": 0.476996034 , "cover": 4.01736116 }
            ]}
          ]}
        ]}
      ]}, 
      { "nodeid": 4, "depth": 2, "split": "F3", "split_condition": 0.106382981, "yes": 9, "no": 10, "missing": 10 , "gain": 199.075195, "cover": 3071.83496, "children": [
        { "nodeid": 9, "depth": 3, "split": "F1_1", "split_condition": 15, "yes": 19, "no": 20, "missing": 20 , "gain": 28.4643555, "cover": 2676.0896, "children": [
          { "nodeid": 19, "depth": 4, "split": "F1_3", "split_condition": 22, "yes": 37, "no": 38, "missing": 38 , "gain": 11.6445312, "cover": 2245.45532, "children": [
            { "nodeid": 37, "depth": 5, "split": "F9", "split_condition": 103, "yes": 71, "no": 72, "missing": 72 , "gain": 17.4033203, "cover": 944.070862, "children": [
              { "nodeid": 71, "leaf": -0.325019836 , "cover": 268.196899 }, 
              { "nodeid": 72, "leaf": -0.419537932 , "cover": 675.873962 }
            ]}, 
            { "nodeid": 38, "depth": 5, "split": "F9", "split_condition": 3, "yes": 73, "no": 74, "missing": 74 , "gain": 8.62866211, "cover": 1301.3844, "children": [
              { "nodeid": 73, "leaf": -0.0198798142 , "cover": 4.4741931 }, 
              { "nodeid": 74, "leaf": -0.441785455 , "cover": 1296.91016 }
            ]}
          ]}, 
          { "nodeid": 20, "depth": 4, "split": "F1_18", "split_condition": 4, "yes": 39, "no": 40, "missing": 40 , "gain": 46.3966675, "cover": 430.634277, "children": [
            { "nodeid": 39, "depth": 5, "split": "F1_20", "split_condition": 24, "yes": 75, "no": 76, "missing": 76 , "gain": 7.82281494, "cover": 314.658295, "children": [
              { "nodeid": 75, "leaf": -0.397167414 , "cover": 313.074127 }, 
              { "nodeid": 76, "leaf": 0.181595534 , "cover": 1.58418119 }
            ]}, 
            { "nodeid": 40, "depth": 5, "split": "F1_0", "split_condition": 2, "yes": 77, "no": 78, "missing": 78 , "gain": 53.2781372, "cover": 115.975975, "children": [
              { "nodeid": 77, "leaf": -0.27324459 , "cover": 91.8777847 }, 
              { "nodeid": 78, "leaf": 0.220841631 , "cover": 24.0981903 }
            ]}
          ]}
        ]}, 
        { "nodeid": 10, "depth": 3, "split": "F1_21", "split_condition": 3, "yes": 21, "no": 22, "missing": 22 , "gain": 100.227753, "cover": 395.745575, "children": [
          { "nodeid": 21, "depth": 4, "split": "F1_16", "split_condition": 16, "yes": 41, "no": 42, "missing": 42 , "gain": 16.7145691, "cover": 237.665283, "children": [
            { "nodeid": 41, "depth": 5, "split": "F4", "split_condition": 0.13636364, "yes": 79, "no": 80, "missing": 80 , "gain": 8.72822571, "cover": 213.124954, "children": [
              { "nodeid": 79, "leaf": -0.399488658 , "cover": 92.9092484 }, 
              { "nodeid": 80, "leaf": -0.269615561 , "cover": 120.215706 }
            ]}, 
            { "nodeid": 42, "depth": 5, "split": "F10", "split_condition": 0.0370370373, "yes": 81, "no": 82, "missing": 82 , "gain": 10.5082207, "cover": 24.5403366, "children": [
              { "nodeid": 81, "leaf": 0.364671767 , "cover": 3.37489247 }, 
              { "nodeid": 82, "leaf": -0.145135522 , "cover": 21.1654434 }
            ]}
          ]}, 
          { "nodeid": 22, "depth": 4, "split": "F6", "split_condition": 0.513157904, "yes": 43, "no": 44, "missing": 44 , "gain": 78.9197617, "cover": 158.080276, "children": [
            { "nodeid": 43, "depth": 5, "split": "F1_10", "split_condition": 23, "yes": 83, "no": 84, "missing": 84 , "gain": 46.590992, "cover": 84.0670624, "children": [
              { "nodeid": 83, "leaf": 0.314887315 , "cover": 67.462944 }, 
              { "nodeid": 84, "leaf": -0.235022888 , "cover": 16.604126 }
            ]}, 
            { "nodeid": 44, "depth": 5, "split": "F1_6", "split_condition": 21, "yes": 85, "no": 86, "missing": 86 , "gain": 44.0596581, "cover": 74.0132065, "children": [
              { "nodeid": 85, "leaf": -0.308614552 , "cover": 64.0841904 }, 
              { "nodeid": 86, "leaf": 0.346165836 , "cover": 9.92901516 }
            ]}
          ]}
        ]}
      ]}
    ]}, 
    { "nodeid": 2, "depth": 1, "split": "F1_0", "split_condition": 26, "yes": 5, "no": 6, "missing": 6 , "gain": 5281.91406, "cover": 4780.60645, "children": [
      { "nodeid": 5, "depth": 2, "split": "F1_11", "split_condition": 1, "yes": 11, "no": 12, "missing": 12 , "gain": 0.365234375, "cover": 3855.30029, "children": [
        { "nodeid": 11, "depth": 3, "split": "F9", "split_condition": 233, "yes": 23, "no": 24, "missing": 24 , "gain": 18.5516357, "cover": 160.657227, "children": [
          { "nodeid": 23, "leaf": 0.470260143 , "cover": 151.429489 }, 
          { "nodeid": 24, "depth": 4, "split": "F1_0", "split_condition": 4, "yes": 45, "no": 46, "missing": 46 , "gain": 22.5249443, "cover": 9.22773457, "children": [
            { "nodeid": 45, "depth": 5, "split": "F1_9", "split_condition": 15, "yes": 87, "no": 88, "missing": 88 , "gain": 3.1197567, "cover": 4.02234602, "children": [
              { "nodeid": 87, "leaf": -0.577343524 , "cover": 2.83930302 }, 
              { "nodeid": 88, "leaf": -0.0108023202 , "cover": 1.18304288 }
            ]}, 
            { "nodeid": 46, "leaf": 0.408715665 , "cover": 5.20538855 }
          ]}
        ]}, 
        { "nodeid": 12, "leaf": 0.4868581 , "cover": 3694.64307 }
      ]}, 
      { "nodeid": 6, "depth": 2, "split": "F1_18", "split_condition": 6, "yes": 13, "no": 14, "missing": 14 , "gain": 122.190186, "cover": 925.306152, "children": [
        { "nodeid": 13, "depth": 3, "split": "F1_16", "split_condition": 19, "yes": 25, "no": 26, "missing": 26 , "gain": 26.8753662, "cover": 712.833862, "children": [
          { "nodeid": 25, "depth": 4, "split": "F1_1", "split_condition": 11, "yes": 47, "no": 48, "missing": 48 , "gain": 17.7978516, "cover": 695.361206, "children": [
            { "nodeid": 47, "depth": 5, "split": "F1_0", "split_condition": 53, "yes": 89, "no": 90, "missing": 90 , "gain": 114.118416, "cover": 97.1288757, "children": [
              { "nodeid": 89, "leaf": 0.727346003 , "cover": 8.67513752 }, 
              { "nodeid": 90, "leaf": -0.360708117 , "cover": 88.4537354 }
            ]}, 
            { "nodeid": 48, "depth": 5, "split": "F1_10", "split_condition": 67, "yes": 91, "no": 92, "missing": 92 , "gain": 11.7078857, "cover": 598.2323, "children": [
              { "nodeid": 91, "leaf": -0.403666854 , "cover": 596.038818 }, 
              { "nodeid": 92, "leaf": 0.21461539 , "cover": 2.19347548 }
            ]}
          ]}, 
          { "nodeid": 26, "depth": 4, "split": "F1_1", "split_condition": 22, "yes": 49, "no": 50, "missing": 50 , "gain": 12.4762974, "cover": 17.4727058, "children": [
            { "nodeid": 49, "depth": 5, "split": "F14", "split_condition": 1, "yes": 93, "no": 94, "missing": 94 , "gain": 8.15813732, "cover": 8.59644032, "children": [
              { "nodeid": 93, "leaf": 0.52195251 , "cover": 3.69982481 }, 
              { "nodeid": 94, "leaf": -0.0263158102 , "cover": 4.89661598 }
            ]}, 
            { "nodeid": 50, "depth": 5, "split": "F1_2", "split_condition": 60, "yes": 95, "no": 96, "missing": 96 , "gain": 7.10843325, "cover": 8.87626553, "children": [
              { "nodeid": 95, "leaf": -0.343523711 , "cover": 7.7383337 }, 
              { "nodeid": 96, "leaf": 0.291397482 , "cover": 1.13793242 }
            ]}
          ]}
        ]}, 
        { "nodeid": 14, "depth": 3, "split": "F6", "split_condition": 0.675000012, "yes": 27, "no": 28, "missing": 28 , "gain": 114.432129, "cover": 212.47226, "children": [
          { "nodeid": 27, "depth": 4, "split": "F1_1", "split_condition": 24, "yes": 51, "no": 52, "missing": 52 , "gain": 64.4163208, "cover": 140.909683, "children": [
            { "nodeid": 51, "depth": 5, "split": "F1_34", "split_condition": 81, "yes": 97, "no": 98, "missing": 98 , "gain": 26.4621391, "cover": 82.7355652, "children": [
              { "nodeid": 97, "leaf": 0.258816123 , "cover": 77.6016998 }, 
              { "nodeid": 98, "leaf": -0.39427495 , "cover": 5.13386154 }
            ]}, 
            { "nodeid": 52, "depth": 5, "split": "F1_3", "split_condition": 6, "yes": 99, "no": 100, "missing": 100 , "gain": 20.9816875, "cover": 58.1741219, "children": [
              { "nodeid": 99, "leaf": 0.118000038 , "cover": 14.0561438 }, 
              { "nodeid": 100, "leaf": -0.295017958 , "cover": 44.117981 }
            ]}
          ]}, 
          { "nodeid": 28, "depth": 4, "split": "F1_16", "split_condition": 77, "yes": 53, "no": 54, "missing": 54 , "gain": 2.82835388, "cover": 71.5625687, "children": [
            { "nodeid": 53, "depth": 5, "split": "F1_7", "split_condition": 2, "yes": 101, "no": 102, "missing": 102 , "gain": 2.04077148, "cover": 70.4129715, "children": [
              { "nodeid": 101, "leaf": -0.0171790328 , "cover": 1.16711342 }, 
              { "nodeid": 102, "leaf": -0.432474077 , "cover": 69.2458572 }
            ]}, 
            { "nodeid": 54, "leaf": 0.0265422389 , "cover": 1.14959776 }
          ]}
        ]}
      ]}
    ]}
  ]},
  { "nodeid": 0, "depth": 0, "split": "F1_0", "split_condition": 3, "yes": 1, "no": 2, "missing": 2 , "gain": 6174.7251, "cover": 9822.9043, "children": [
    { "nodeid": 1, "depth": 1, "split": "F15", "split_condition": 0.00999999978, "yes": 3, "no": 4, "missing": 4 , "gain": 742.163574, "cover": 5750.94727, "children": [
      { "nodeid": 3, "depth": 2, "split": "F1_16", "split_condition": 1, "yes": 7, "no": 8, "missing": 8 , "gain": 478.896515, "cover": 3134.81665, "children": [
        { "nodeid": 7, "depth": 3, "split": "F9", "split_condition": 129, "yes": 15, "no": 16, "missing": 16 , "gain": 28.2037354, "cover": 1212.82922, "children": [
          { "nodeid": 15, "depth": 4, "split": "F1_12", "split_condition": 1, "yes": 29, "no": 30, "missing": 30 , "gain": 30.7145996, "cover": 973.322998, "children": [
            { "nodeid": 29, "depth": 5, "split": "F1_7", "split_condition": 67, "yes": 57, "no": 58, "missing": 58 , "gain": 10.3969116, "cover": 491.4086, "children": [
              { "nodeid": 57, "leaf": -0.284263551 , "cover": 489.960815 }, 
              { "nodeid": 58, "leaf": 0.36124149 , "cover": 1.4477911 }
            ]}, 
            { "nodeid": 30, "depth": 5, "split": "F1_3", "split_condition": 59, "yes": 59, "no": 60, "missing": 60 , "gain": 34.7148132, "cover": 481.914368, "children": [
              { "nodeid": 59, "leaf": -0.18854396 , "cover": 467.278503 }, 
              { "nodeid": 60, "leaf": 0.268063873 , "cover": 14.6358509 }
            ]}
          ]}, 
          { "nodeid": 16, "depth": 4, "split": "F3", "split_condition": 0.239130437, "yes": 31, "no": 32, "missing": 32 , "gain": 8.32958984, "cover": 239.506287, "children": [
            { "nodeid": 31, "depth": 5, "split": "F14", "split_condition": 11, "yes": 61, "no": 62, "missing": 62 , "gain": 2.82244873, "cover": 236.011566, "children": [
              { "nodeid": 61, "leaf": -0.353921115 , "cover": 234.880478 }, 
              { "nodeid": 62, "leaf": 0.0686495975 , "cover": 1.13108516 }
            ]}, 
            { "nodeid": 32, "depth": 5, "split": "F1_10", "split_condition": 16, "yes": 63, "no": 64, "missing": 64 , "gain": 7.65564585, "cover": 3.49471641, "children": [
              { "nodeid": 63, "leaf": -0.235703468 , "cover": 2.115906 }, 
              { "nodeid": 64, "leaf": 0.482559741 , "cover": 1.37881041 }
            ]}
          ]}
        ]}, 
        { "nodeid": 8, "depth": 3, "split": "F9", "split_condition": 157, "yes": 17, "no": 18, "missing": 18 , "gain": 240.813904, "cover": 1921.98743, "children": [
          { "nodeid": 17, "depth": 4, "split": "F1_78", "split_condition": 2, "yes": 33, "no": 34, "missing": 34 , "gain": 135.586136, "cover": 1739.25952, "children": [
            { "nodeid": 33, "depth": 5, "split": "F1_1", "split_condition": 16, "yes": 65, "no": 66, "missing": 66 , "gain": 107.22197, "cover": 1495.12976, "children": [
              { "nodeid": 65, "leaf": -0.0630198866 , "cover": 1048.0564 }, 
              { "nodeid": 66, "leaf": 0.112296052 , "cover": 447.073334 }
            ]}, 
            { "nodeid": 34, "depth": 5, "split": "F1_66", "split_condition": 74, "yes": 67, "no": 68, "missing": 68 , "gain": 78.6067505, "cover": 244.1297, "children": [
              { "nodeid": 67, "leaf": 0.277109623 , "cover": 227.063202 }, 
              { "nodeid": 68, "leaf": -0.375392556 , "cover": 17.0664864 }
            ]}
          ]}, 
          { "nodeid": 18, "depth": 4, "split": "F1_21", "split_condition": 53, "yes": 35, "no": 36, "missing": 36 , "gain": 18.0526886, "cover": 182.727982, "children": [
            { "nodeid": 35, "depth": 5, "split": "F1_80", "split_condition": 26, "yes": 69, "no": 70, "missing": 70 , "gain": 8.03135681, "cover": 175.055435, "children": [
              { "nodeid": 69, "leaf": -0.363941044 , "cover": 173.450394 }, 
              { "nodeid": 70, "leaf": 0.211493239 , "cover": 1.60504675 }
            ]}, 
            { "nodeid": 36, "depth": 5, "split": "F3", "split_condition": 0.0163934417, "yes": 71, "no": 72, "missing": 72 , "gain": 13.0491095, "cover": 7.67254734, "children": [
              { "nodeid": 71, "leaf": -0.312354684 , "cover": 3.15625715 }, 
              { "nodeid": 72, "leaf": 0.394280136 , "cover": 4.51629019 }
            ]}
          ]}
        ]}
      ]}, 
      { "nodeid": 4, "depth": 2, "split": "F3", "split_condition": 0.097560972, "yes": 9, "no": 10, "missing": 10 , "gain": 156.069092, "cover": 2616.13037, "children": [
        { "nodeid": 9, "depth": 3, "split": "F1_1", "split_condition": 16, "yes": 19, "no": 20, "missing": 20 , "gain": 26.0358887, "cover": 2220.55225, "children": [
          { "nodeid": 19, "depth": 4, "split": "F1_6", "split_condition": 19, "yes": 37, "no": 38, "missing": 38 , "gain": 12.7937012, "cover": 1909.59192, "children": [
            { "nodeid": 37, "depth": 5, "split": "F1_19", "split_condition": 12, "yes": 73, "no": 74, "missing": 74 , "gain": 22.9072266, "cover": 661.734558, "children": [
              { "nodeid": 73, "leaf": -0.357576489 , "cover": 528.184387 }, 
              { "nodeid": 74, "leaf": -0.215353474 , "cover": 133.550186 }
            ]}, 
            { "nodeid": 38, "depth": 5, "split": "F1_8", "split_condition": 61, "yes": 75, "no": 76, "missing": 76 , "gain": 6.99560547, "cover": 1247.8573, "children": [
              { "nodeid": 75, "leaf": -0.386301547 , "cover": 1232.1958 }, 
              { "nodeid": 76, "leaf": -0.168935314 , "cover": 15.6614943 }
            ]}
          ]}, 
          { "nodeid": 20, "depth": 4, "split": "F1_0", "split_condition": 2, "yes": 39, "no": 40, "missing": 40 , "gain": 149.218658, "cover": 310.960266, "children": [
            { "nodeid": 39, "depth": 5, "split": "F1_76", "split_condition": 67, "yes": 77, "no": 78, "missing": 78 , "gain": 30.7090454, "cover": 295.355194, "children": [
              { "nodeid": 77, "leaf": -0.32891497 , "cover": 291.557312 }, 
              { "nodeid": 78, "leaf": 0.450037986 , "cover": 3.79788446 }
            ]}, 
            { "nodeid": 40, "depth": 5, "split": "F1_1", "split_condition": 26, "yes": 79, "no": 80, "missing": 80 , "gain": 20.0699921, "cover": 15.6050663, "children": [
              { "nodeid": 79, "leaf": 0.723045111 , "cover": 13.9216328 }, 
              { "nodeid": 80, "leaf": -0.250661641 , "cover": 1.68343389 }
            ]}
          ]}
        ]}, 
        { "nodeid": 10, "depth": 3, "split": "F1_21", "split_condition": 3, "yes": 21, "no": 22, "missing": 22 , "gain": 62.3392944, "cover": 395.578247, "children": [
          { "nodeid": 21, "depth": 4, "split": "F1_6", "split_condition": 67, "yes": 41, "no": 42, "missing": 42 , "gain": 12.6179047, "cover": 236.084595, "children": [
            { "nodeid": 41, "depth": 5, "split": "F4", "split_condition": 0.134328365, "yes": 81, "no": 82, "missing": 82 , "gain": 11.5965424, "cover": 232.075699, "children": [
              { "nodeid": 81, "leaf": -0.331687689 , "cover": 99.6650772 }, 
              { "nodeid": 82, "leaf": -0.192738026 , "cover": 132.410614 }
            ]}, 
            { "nodeid": 42, "depth": 5, "split": "F1_3", "split_condition": 22, "yes": 83, "no": 84, "missing": 84 , "gain": 9.56052494, "cover": 4.00890112, "children": [
              { "nodeid": 83, "leaf": -0.184264064 , "cover": 2.03894567 }, 
              { "nodeid": 84, "leaf": 0.593454659 , "cover": 1.96995544 }
            ]}
          ]}, 
          { "nodeid": 22, "depth": 4, "split": "F3", "split_condition": 0.1875, "yes": 43, "no": 44, "missing": 44 , "gain": 46.5391273, "cover": 159.493652, "children": [
            { "nodeid": 43, "depth": 5, "split": "F1_15", "split_condition": 3, "yes": 85, "no": 86, "missing": 86 , "gain": 16.0822563, "cover": 87.2835388, "children": [
              { "nodeid": 85, "leaf": 0.251107574 , "cover": 7.41239357 }, 
              { "nodeid": 86, "leaf": -0.187990233 , "cover": 79.8711472 }
            ]}, 
            { "nodeid": 44, "depth": 5, "split": "F1_10", "split_condition": 13, "yes": 87, "no": 88, "missing": 88 , "gain": 29.5600224, "cover": 72.2101212, "children": [
              { "nodeid": 87, "leaf": 0.379288107 , "cover": 33.1165466 }, 
              { "nodeid": 88, "leaf": -0.00278259302 , "cover": 39.0935707 }
            ]}
          ]}
        ]}
      ]}
    ]}, 
    { "nodeid": 2, "depth": 1, "split": "F1_0", "split_condition": 26, "yes": 5, "no": 6, "missing": 6 , "gain": 3253.4397, "cover": 4071.95703, "children": [
      { "nodeid": 5, "depth": 2, "split": "F1_11", "split_condition": 1, "yes": 11, "no": 12, "missing": 12 , "gain": 0.526855469, "cover": 3266.6936, "children": [
        { "nodeid": 11, "depth": 3, "split": "F9", "split_condition": 233, "yes": 23, "no": 24, "missing": 24 , "gain": 12.6899872, "cover": 137.917679, "children": [
          { "nodeid": 23, "depth": 4, "split": "F1_0", "split_condition": 4, "yes": 45, "no": 46, "missing": 46 , "gain": 0.836257935, "cover": 129.181427, "children": [
            { "nodeid": 45, "depth": 5, "split": "F1_1", "split_condition": 5, "yes": 89, "no": 90, "missing": 90 , "gain": 4.2366848, "cover": 20.3864441, "children": [
              { "nodeid": 89, "leaf": 0.0032424056 , "cover": 3.63322783 }, 
              { "nodeid": 90, "leaf": 0.359705985 , "cover": 16.7532177 }
            ]}, 
            { "nodeid": 46, "leaf": 0.413192987 , "cover": 108.794991 }
          ]}, 
          { "nodeid": 24, "depth": 4, "split": "F1_0", "split_condition": 4, "yes": 47, "no": 48, "missing": 48 , "gain": 13.814146, "cover": 8.73624611, "children": [
            { "nodeid": 47, "depth": 5, "split": "F4", "split_condition": 0.0219780225, "yes": 91, "no": 92, "missing": 92 , "gain": 2.59728384, "cover": 4.17757368, "children": [
              { "nodeid": 91, "leaf": 0.028969001 , "cover": 1.21018326 }, 
              { "nodeid": 92, "leaf": -0.450808614 , "cover": 2.96739006 }
            ]}, 
            { "nodeid": 48, "leaf": 0.348064959 , "cover": 4.55867243 }
          ]}
        ]}, 
        { "nodeid": 12, "leaf": 0.414644957 , "cover": 3128.77588 }
      ]}, 
      { "nodeid": 6, "depth": 2, "split": "F1_18", "split_condition": 6, "yes": 13, "no": 14, "missing": 14 , "gain": 81.5888672, "cover": 805.263367, "children": [
        { "nodeid": 13, "depth": 3, "split": "F3", "split_condition": 0.111111112, "yes": 25, "no": 26, "missing": 26 , "gain": 21.3032227, "cover": 609.903442, "children": [
          { "nodeid": 25, "depth": 4, "split": "F1_16", "split_condition": 22, "yes": 49, "no": 50, "missing": 50 , "gain": 10.9285889, "cover": 501.211731, "children": [
            { "nodeid": 49, "depth": 5, "split": "F1_14", "split_condition": 67, "yes": 93, "no": 94, "missing": 94 , "gain": 7.3659668, "cover": 494.120026, "children": [
              { "nodeid": 93, "leaf": -0.347649157 , "cover": 492.640625 }, 
              { "nodeid": 94, "leaf": 0.215395704 , "cover": 1.47938883 }
            ]}, 
            { "nodeid": 50, "depth": 5, "split": "F11", "split_condition": 0.615384638, "yes": 95, "no": 96, "missing": 96 , "gain": 4.56136703, "cover": 7.09172869, "children": [
              { "nodeid": 95, "leaf": -0.129247919 , "cover": 5.00645685 }, 
              { "nodeid": 96, "leaf": 0.319864064 , "cover": 2.0852716 }
            ]}
          ]}, 
          { "nodeid": 26, "depth": 4, "split": "F14", "split_condition": 1, "yes": 51, "no": 52, "missing": 52 , "gain": 15.7129974, "cover": 108.691696, "children": [
            { "nodeid": 51, "depth": 5, "split": "F1_16", "split_condition": 19, "yes": 97, "no": 98, "missing": 98 , "gain": 5.21041489, "cover": 68.6537018, "children": [
              { "nodeid": 97, "leaf": -0.29413119 , "cover": 65.7211533 }, 
              { "nodeid": 98, "leaf": 0.0887574628 , "cover": 2.93254328 }
            ]}, 
            { "nodeid": 52, "depth": 5, "split": "F4", "split_condition": 0.212121218, "yes": 99, "no": 100, "missing": 100 , "gain": 20.3800621, "cover": 40.0379944, "children": [
              { "nodeid": 99, "leaf": -0.19305715 , "cover": 26.2127666 }, 
              { "nodeid": 100, "leaf": 0.244304404 , "cover": 13.8252296 }
            ]}
          ]}
        ]}, 
        { "nodeid": 14, "depth": 3, "split": "F4", "split_condition": 0.218181819, "yes": 27, "no": 28, "missing": 28 , "gain": 81.3285828, "cover": 195.359909, "children": [
          { "nodeid": 27, "depth": 4, "split": "F1_0", "split_condition": 54, "yes": 53, "no": 54, "missing": 54 , "gain": 57.3461838, "cover": 137.783005, "children": [
            { "nodeid": 53, "depth": 5, "split": "F1_1", "split_condition": 11, "yes": 101, "no": 102, "missing": 102 , "gain": 35.7250099, "cover": 27.4097862, "children": [
              { "nodeid": 101, "leaf": 0.481769681 , "cover": 14.2877159 }, 
              { "nodeid": 102, "leaf": -0.182851493 , "cover": 13.1220713 }
            ]}, 
            { "nodeid": 54, "depth": 5, "split": "F1_2", "split_condition": 3, "yes": 103, "no": 104, "missing": 104 , "gain": 16.4203033, "cover": 110.373215, "children": [
              { "nodeid": 103, "leaf": 0.0739468932 , "cover": 8.81979847 }, 
              { "nodeid": 104, "leaf": -0.345124364 , "cover": 101.553421 }
            ]}
          ]}, 
          { "nodeid": 28, "depth": 4, "split": "F1_5", "split_condition": 19, "yes": 55, "no": 56, "missing": 56 , "gain": 39.4178696, "cover": 57.5769119, "children": [
            { "nodeid": 55, "depth": 5, "split": "F1_30", "split_condition": 74, "yes": 105, "no": 106, "missing": 106 , "gain": 13.0535507, "cover": 40.6567307, "children": [
              { "nodeid": 105, "leaf": 0.39613232 , "cover": 39.4650917 }, 
              { "nodeid": 106, "leaf": -0.395893306 , "cover": 1.19163978 }
            ]}, 
            { "nodeid": 56, "depth": 5, "split": "F1_2", "split_condition": 15, "yes": 107, "no": 108, "missing": 108 , "gain": 13.2593489, "cover": 16.9201813, "children": [
              { "nodeid": 107, "leaf": 0.202944666 , "cover": 5.17107677 }, 
              { "nodeid": 108, "leaf": -0.338958681 , "cover": 11.7491055 }
            ]}
          ]}
        ]}
      ]}
    ]}
  ]},
  { "nodeid": 0, "depth": 0, "split": "F1_0", "split_condition": 3, "yes": 1, "no": 2, "missing": 2 , "gain": 3869.06494, "cover": 8454.56543, "children": [
    { "nodeid": 1, "depth": 1, "split": "F15", "split_condition": 0.00999999978, "yes": 3, "no": 4, "missing": 4 , "gain": 559.568237, "cover": 5133.02051, "children": [
      { "nodeid": 3, "depth": 2, "split": "F1_22", "split_condition": 2, "yes": 7, "no": 8, "missing": 8 , "gain": 294.367065, "cover": 2953.8999, "children": [
        { "nodeid": 7, "depth": 3, "split": "F9", "split_condition": 129, "yes": 15, "no": 16, "missing": 16 , "gain": 54.8530579, "cover": 1594.84534, "children": [
          { "nodeid": 15, "depth": 4, "split": "F1_12", "split_condition": 1, "yes": 29, "no": 30, "missing": 30 , "gain": 53.7624817, "cover": 1340.65979, "children": [
            { "nodeid": 29, "depth": 5, "split": "F5", "split_condition": 0.5, "yes": 55, "no": 56, "missing": 56 , "gain": 10.2863007, "cover": 431.804688, "children": [
              { "nodeid": 55, "leaf": -0.240439147 , "cover": 410.995667 }, 
              { "nodeid": 56, "leaf": -0.0230803527 , "cover": 20.8090019 }
            ]}, 
            { "nodeid": 30, "depth": 5, "split": "F1_5", "split_condition": 61, "yes": 57, "no": 58, "missing": 58 , "gain": 57.8314896, "cover": 908.855164, "children": [
              { "nodeid": 57, "leaf": -0.119179256 , "cover": 861.263062 }, 
              { "nodeid": 58, "leaf": 0.217528284 , "cover": 47.5921097 }
            ]}
          ]}, 
          { "nodeid": 16, "depth": 4, "split": "F3", "split_condition": 0.315789461, "yes": 31, "no": 32, "missing": 32 , "gain": 10.4007568, "cover": 254.185516, "children": [
            { "nodeid": 31, "depth": 5, "split": "F1_21", "split_condition": 24, "yes": 59, "no": 60, "missing": 60 , "gain": 5.49853516, "cover": 250.922943, "children": [
              { "nodeid": 59, "leaf": -0.306380123 , "cover": 248.765015 }, 
              { "nodeid": 60, "leaf": 0.127036244 , "cover": 2.15792918 }
            ]}, 
            { "nodeid": 32, "depth": 5, "split": "F1_10", "split_condition": 15, "yes": 61, "no": 62, "missing": 62 , "gain": 5.63121986, "cover": 3.26257563, "children": [
              { "nodeid": 61, "leaf": -0.16033721 , "cover": 1.66130602 }, 
              { "nodeid": 62, "leaf": 0.47835061 , "cover": 1.60126972 }
            ]}
          ]}
        ]}, 
        { "nodeid": 8, "depth": 3, "split": "F9", "split_condition": 157, "yes": 17, "no": 18, "missing": 18 , "gain": 140.141541, "cover": 1359.05457, "children": [
          { "nodeid": 17, "depth": 4, "split": "F4", "split_condition": 0.111111112, "yes": 33, "no": 34, "missing": 34 , "gain": 85.0694427, "cover": 1248.72778, "children": [
            { "nodeid": 33, "depth": 5, "split": "F1_11", "split_condition": 4, "yes": 63, "no": 64, "missing": 64 , "gain": 89.2942429, "cover": 767.961487, "children": [
              { "nodeid": 63, "leaf": -0.214580551 , "cover": 153.446777 }, 
              { "nodeid": 64, "leaf": 0.0405496769 , "cover": 614.514709 }
            ]}, 
            { "nodeid": 34, "depth": 5, "split": "F1_5", "split_condition": 18, "yes": 65, "no": 66, "missing": 66 , "gain": 70.698204, "cover": 480.766235, "children": [
              { "nodeid": 65, "leaf": 0.0646086261 , "cover": 310.58905 }, 
              { "nodeid": 66, "leaf": 0.305015266 , "cover": 170.177185 }
            ]}
          ]}, 
          { "nodeid": 18, "depth": 4, "split": "F1_4", "split_condition": 15, "yes": 35, "no": 36, "missing": 36 , "gain": 13.2395096, "cover": 110.326874, "children": [
            { "nodeid": 35, "depth": 5, "split": "F1_80", "split_condition": 15, "yes": 67, "no": 68, "missing": 68 , "gain": 4.5271759, "cover": 92.0721893, "children": [
              { "nodeid": 67, "leaf": -0.355099976 , "cover": 90.3330002 }, 
              { "nodeid": 68, "leaf": 0.0895359516 , "cover": 1.7391938 }
            ]}, 
            { "nodeid": 36, "depth": 5, "split": "F6", "split_condition": 0.730000019, "yes": 69, "no": 70, "missing": 70 , "gain": 19.3565102, "cover": 18.2546806, "children": [
              { "nodeid": 69, "leaf": 0.363565803 , "cover": 5.58530331 }, 
              { "nodeid": 70, "leaf": -0.263188958 , "cover": 12.6693783 }
            ]}
          ]}
        ]}
      ]}, 
      { "nodeid": 4, "depth": 2, "split": "F3", "split_condition": 0.097560972, "yes": 9, "no": 10, "missing": 10 , "gain": 132.77832, "cover": 2179.12061, "children": [
        { "nodeid": 9, "depth": 3, "split": "F1_3", "split_condition": 23, "yes": 19, "no": 20, "missing": 20 , "gain": 29.4110107, "cover": 1815.84045, "children": [
          { "nodeid": 19, "depth": 4, "split": "F1_81", "split_condition": 21, "yes": 37, "no": 38, "missing": 38 , "gain": 36.1738281, "cover": 936.830627, "children": [
            { "nodeid": 37, "depth": 5, "split": "F9", "split_condition": 96, "yes": 71, "no": 72, "missing": 72 , "gain": 28.5221558, "cover": 926.93573, "children": [
              { "nodeid": 71, "leaf": -0.194295809 , "cover": 251.970673 }, 
              { "nodeid": 72, "leaf": -0.314195514 , "cover": 674.965027 }
            ]}, 
            { "nodeid": 38, "depth": 5, "split": "F1_2", "split_condition": 5, "yes": 73, "no": 74, "missing": 74 , "gain": 16.8227253, "cover": 9.89489079, "children": [
              { "nodeid": 73, "leaf": 0.573409557 , "cover": 5.68405628 }, 
              { "nodeid": 74, "leaf": -0.161860198 , "cover": 4.2108345 }
            ]}
          ]}, 
          { "nodeid": 20, "depth": 4, "split": "F9", "split_condition": 3, "yes": 39, "no": 40, "missing": 40 , "gain": 8.67089844, "cover": 879.009888, "children": [
            { "nodeid": 39, "depth": 5, "split": "F1_2", "split_condition": 2, "yes": 75, "no": 76, "missing": 76 , "gain": 7.57114363, "cover": 4.08804131, "children": [
              { "nodeid": 75, "leaf": 0.396814495 , "cover": 1.99987185 }, 
              { "nodeid": 76, "leaf": -0.274227411 , "cover": 2.08816934 }
            ]}, 
            { "nodeid": 40, "depth": 5, "split": "F1_8", "split_condition": 26, "yes": 77, "no": 78, "missing": 78 , "gain": 7.14831543, "cover": 874.921814, "children": [
              { "nodeid": 77, "leaf": -0.358266383 , "cover": 865.914612 }, 
              { "nodeid": 78, "leaf": -0.0793594941 , "cover": 9.00721741 }
            ]}
          ]}
        ]}, 
        { "nodeid": 10, "depth": 3, "split": "F1_16", "split_condition": 2, "yes": 21, "no": 22, "missing": 22 , "gain": 44.1196785, "cover": 363.280212, "children": [
          { "nodeid": 21, "depth": 4, "split": "F1_6", "split_condition": 67, "yes": 41, "no": 42, "missing": 42 , "gain": 11.6480789, "cover": 161.546494, "children": [
            { "nodeid": 41, "depth": 5, "split": "F1_10", "split_condition": 67, "yes": 79, "no": 80, "missing": 80 , "gain": 8.06684113, "cover": 158.789642, "children": [
              { "nodeid": 79, "leaf": -0.248396754 , "cover": 157.701599 }, 
              { "nodeid": 80, "leaf": 0.368442506 , "cover": 1.08803916 }
            ]}, 
            { "nodeid": 42, "depth": 5, "split": "F1_10", "split_condition": 15, "yes": 81, "no": 82, "missing": 82 , "gain": 0.55080986, "cover": 2.75684857, "children": [
              { "nodeid": 81, "leaf": 0.382367909 , "cover": 1.69654024 }, 
              { "nodeid": 82, "leaf": 0.0572521649 , "cover": 1.06030822 }
            ]}
          ]}, 
          { "nodeid": 22, "depth": 4, "split": "F10", "split_condition": 0.166666672, "yes": 43, "no": 44, "missing": 44 , "gain": 35.4457169, "cover": 201.733734, "children": [
            { "nodeid": 43, "depth": 5, "split": "F9", "split_condition": 139, "yes": 83, "no": 84, "missing": 84 , "gain": 25.1271935, "cover": 82.1092758, "children": [
              { "nodeid": 83, "leaf": 0.20533371 , "cover": 68.1342392 }, 
              { "nodeid": 84, "leaf": -0.224884927 , "cover": 13.9750357 }
            ]}, 
            { "nodeid": 44, "depth": 5, "split": "F1_16", "split_condition": 24, "yes": 85, "no": 86, "missing": 86 , "gain": 19.5368004, "cover": 119.624451, "children": [
              { "nodeid": 85, "leaf": -0.183786929 , "cover": 96.249176 }, 
              { "nodeid": 86, "leaf": 0.117879122 , "cover": 23.3752747 }
            ]}
          ]}
        ]}
      ]}
    ]}, 
    { "nodeid": 2, "depth": 1, "split": "F1_0", "split_condition": 26, "yes": 5, "no": 6, "missing": 6 , "gain": 2144.82715, "cover": 3321.54443, "children": [
      { "nodeid": 5, "depth": 2, "split": "F1_11", "split_condition": 1, "yes": 11, "no": 12, "missing": 12 , "gain": 0.659912109, "cover": 2631.77222, "children": [
        { "nodeid": 11, "depth": 3, "split": "F9", "split_condition": 233, "yes": 23, "no": 24, "missing": 24 , "gain": 9.22080994, "cover": 113.328911, "children": [
          { "nodeid": 23, "depth": 4, "split": "F1_0", "split_condition": 4, "yes": 45, "no": 46, "missing": 46 , "gain": 0.990936279, "cover": 105.452705, "children": [
            { "nodeid": 45, "depth": 5, "split": "F1_1", "split_condition": 5, "yes": 87, "no": 88, "missing": 88 , "gain": 3.17523575, "cover": 17.5857029, "children": [
              { "nodeid": 87, "leaf": 0.00248303497 , "cover": 3.62805438 }, 
              { "nodeid": 88, "leaf": 0.316017479 , "cover": 13.9576483 }
            ]}, 
            { "nodeid": 46, "leaf": 0.373146832 , "cover": 87.8670044 }
          ]}, 
          { "nodeid": 24, "depth": 4, "split": "F1_0", "split_condition": 4, "yes": 47, "no": 48, "missing": 48 , "gain": 9.06313992, "cover": 7.87620544, "children": [
            { "nodeid": 47, "depth": 5, "split": "F15", "split_condition": 0.5, "yes": 89, "no": 90, "missing": 90 , "gain": 1.98262644, "cover": 4.02191067, "children": [
              { "nodeid": 89, "leaf": 0.0404327102 , "cover": 1.18800962 }, 
              { "nodeid": 90, "leaf": -0.372813106 , "cover": 2.83390093 }
            ]}, 
            { "nodeid": 48, "leaf": 0.307947814 , "cover": 3.85429502 }
          ]}
        ]}, 
        { "nodeid": 12, "leaf": 0.375502676 , "cover": 2518.44336 }
      ]}, 
      { "nodeid": 6, "depth": 2, "split": "F1_1", "split_condition": 11, "yes": 13, "no": 14, "missing": 14 , "gain": 66.5491638, "cover": 689.772278, "children": [
        { "nodeid": 13, "depth": 3, "split": "F1_0", "split_condition": 53, "yes": 25, "no": 26, "missing": 26 , "gain": 140.453079, "cover": 125.654121, "children": [
          { "nodeid": 25, "leaf": 0.491283655 , "cover": 33.833374 }, 
          { "nodeid": 26, "depth": 4, "split": "F9", "split_condition": 111, "yes": 49, "no": 50, "missing": 50 , "gain": 12.0519981, "cover": 91.8207474, "children": [
            { "nodeid": 49, "depth": 5, "split": "F1_12", "split_condition": 3, "yes": 91, "no": 92, "missing": 92 , "gain": 14.8563442, "cover": 56.9706116, "children": [
              { "nodeid": 91, "leaf": -0.28583011 , "cover": 26.6124268 }, 
              { "nodeid": 92, "leaf": 0.0177057106 , "cover": 30.3581867 }
            ]}, 
            { "nodeid": 50, "depth": 5, "split": "F1_16", "split_condition": 58, "yes": 93, "no": 94, "missing": 94 , "gain": 0.344654083, "cover": 34.850132, "children": [
              { "nodeid": 93, "leaf": -0.365537643 , "cover": 31.7790718 }, 
              { "nodeid": 94, "leaf": -0.1607382 , "cover": 3.07106042 }
            ]}
          ]}
        ]}, 
        { "nodeid": 14, "depth": 3, "split": "F1_61", "split_condition": 2, "yes": 27, "no": 28, "missing": 28 , "gain": 35.1977844, "cover": 564.118103, "children": [
          { "nodeid": 27, "depth": 4, "split": "F6", "split_condition": 0.454545468, "yes": 51, "no": 52, "missing": 52 , "gain": 23.5242615, "cover": 537.368774, "children": [
            { "nodeid": 51, "depth": 5, "split": "F1_2", "split_condition": 3, "yes": 95, "no": 96, "missing": 96 , "gain": 22.4004669, "cover": 175.140594, "children": [
              { "nodeid": 95, "leaf": 0.114097364 , "cover": 18.9890003 }, 
              { "nodeid": 96, "leaf": -0.226024732 , "cover": 156.151596 }
            ]}, 
            { "nodeid": 52, "depth": 5, "split": "F1_10", "split_condition": 20, "yes": 97, "no": 98, "missing": 98 , "gain": 4.61785889, "cover": 362.22818, "children": [
              { "nodeid": 97, "leaf": -0.338401943 , "cover": 316.404541 }, 
              { "nodeid": 98, "leaf": -0.2254273 , "cover": 45.8236389 }
            ]}
          ]}, 
          { "nodeid": 28, "depth": 4, "split": "F1_12", "split_condition": 14, "yes": 53, "no": 54, "missing": 54 , "gain": 17.1771393, "cover": 26.7493591, "children": [
            { "nodeid": 53, "depth": 5, "split": "F1_12", "split_condition": 5, "yes": 99, "no": 100, "missing": 100 , "gain": 14.3587341, "cover": 11.6950436, "children": [
              { "nodeid": 99, "leaf": 0.283114642 , "cover": 3.26233697 }, 
              { "nodeid": 100, "leaf": -0.389264107 , "cover": 8.43270588 }
            ]}, 
            { "nodeid": 54, "depth": 5, "split": "F9", "split_condition": 96, "yes": 101, "no": 102, "missing": 102 , "gain": 12.4305859, "cover": 15.0543156, "children": [
              { "nodeid": 101, "leaf": 0.402443916 , "cover": 12.1042795 }, 
              { "nodeid": 102, "leaf": -0.223495349 , "cover": 2.95003605 }
            ]}
          ]}
        ]}
      ]}
    ]}
  ]},
  { "nodeid": 0, "depth": 0, "split": "F1_0", "split_condition": 3, "yes": 1, "no": 2, "missing": 2 , "gain": 2482.34546, "cover": 7244.86377, "children": [
    { "nodeid": 1, "depth": 1, "split": "F15", "split_condition": 0.00999999978, "yes": 3, "no": 4, "missing": 4 , "gain": 417.536255, "cover": 4595.18848, "children": [
      { "nodeid": 3, "depth": 2, "split": "F1_16", "split_condition": 1, "yes": 7, "no": 8, "missing": 8 , "gain": 182.711273, "cover": 2785.56812, "children": [
        { "nodeid": 7, "depth": 3, "split": "F1_1", "split_condition": 16, "yes": 15, "no": 16, "missing": 16 , "gain": 33.9867554, "cover": 970.251892, "children": [
          { "nodeid": 15, "depth": 4, "split": "F1_6", "split_condition": 67, "yes": 29, "no": 30, "missing": 30 , "gain": 19.3117065, "cover": 697.901733, "children": [
            { "nodeid": 29, "depth": 5, "split": "F6", "split_condition": 1, "yes": 55, "no": 56, "missing": 56 , "gain": 18.794342, "cover": 684.765442, "children": [
              { "nodeid": 55, "leaf": -0.215398401 , "cover": 671.193604 }, 
              { "nodeid": 56, "leaf": 0.133361667 , "cover": 13.5718136 }
            ]}, 
            { "nodeid": 30, "depth": 5, "split": "F1_1", "split_condition": 5, "yes": 57, "no": 58, "missing": 58 , "gain": 20.993063, "cover": 13.1362791, "children": [
              { "nodeid": 57, "leaf": 0.446917236 , "cover": 7.67044926 }, 
              { "nodeid": 58, "leaf": -0.271271795 , "cover": 5.46582937 }
            ]}
          ]}, 
          { "nodeid": 16, "depth": 4, "split": "F1_0", "split_condition": 2, "yes": 31, "no": 32, "missing": 32 , "gain": 150.774887, "cover": 272.350159, "children": [
            { "nodeid": 31, "depth": 5, "split": "F5", "split_condition": 0.5, "yes": 59, "no": 60, "missing": 60 , "gain": 14.4129295, "cover": 254.831757, "children": [
              { "nodeid": 59, "leaf": -0.152497306 , "cover": 241.449341 }, 
              { "nodeid": 60, "leaf": 0.158774421 , "cover": 13.3824234 }
            ]}, 
            { "nodeid": 32, "depth": 5, "split": "F1_1", "split_condition": 26, "yes": 61, "no": 62, "missing": 62 , "gain": 47.833107, "cover": 17.518404, "children": [
              { "nodeid": 61, "leaf": 0.9924739 , "cover": 13.8324385 }, 
              { "nodeid": 62, "leaf": -0.173385814 , "cover": 3.68596578 }
            ]}
          ]}
        ]}, 
        { "nodeid": 8, "depth": 3, "split": "F9", "split_condition": 93, "yes": 17, "no": 18, "missing": 18 , "gain": 114.821999, "cover": 1815.31616, "children": [
          { "nodeid": 17, "depth": 4, "split": "F10", "split_condition": 0.793103456, "yes": 33, "no": 34, "missing": 34 , "gain": 86.3129959, "cover": 1564.03821, "children": [
            { "nodeid": 33, "depth": 5, "split": "F1_30", "split_condition": 74, "yes": 63, "no": 64, "missing": 64 , "gain": 68.326767, "cover": 1284.19849, "children": [
              { "nodeid": 63, "leaf": 0.00365086203 , "cover": 1251.28589 }, 
              { "nodeid": 64, "leaf": -0.427908212 , "cover": 32.9126396 }
            ]}, 
            { "nodeid": 34, "depth": 5, "split": "F4", "split_condition": 0.157894731, "yes": 65, "no": 66, "missing": 66 , "gain": 82.4841003, "cover": 279.839661, "children": [
              { "nodeid": 65, "leaf": -0.10118708 , "cover": 71.4711075 }, 
              { "nodeid": 66, "leaf": 0.270920753 , "cover": 208.368546 }
            ]}
          ]}, 
          { "nodeid": 18, "depth": 4, "split": "F3", "split_condition": 0.131205678, "yes": 35, "no": 36, "missing": 36 , "gain": 70.1840591, "cover": 251.278015, "children": [
            { "nodeid": 35, "depth": 5, "split": "F1_9", "split_condition": 55, "yes": 67, "no": 68, "missing": 68 , "gain": 23.3607483, "cover": 196.559799, "children": [
              { "nodeid": 67, "leaf": -0.310197234 , "cover": 177.257751 }, 
              { "nodeid": 68, "leaf": 0.0355188474 , "cover": 19.3020477 }
            ]}, 
            { "nodeid": 36, "depth": 5, "split": "F1_1", "split_condition": 16, "yes": 69, "no": 70, "missing": 70 , "gain": 37.0462189, "cover": 54.7182159, "children": [
              { "nodeid": 69, "leaf": -0.080000475 , "cover": 34.9995308 }, 
              { "nodeid": 70, "leaf": 0.424363613 , "cover": 19.7186852 }
            ]}
          ]}
        ]}
      ]}, 
      { "nodeid": 4, "depth": 2, "split": "F3", "split_condition": 0.097560972, "yes": 9, "no": 10, "missing": 10 , "gain": 113.210815, "cover": 1809.62036, "children": [
        { "nodeid": 9, "depth": 3, "split": "F1_3", "split_condition": 23, "yes": 19, "no": 20, "missing": 20 , "gain": 35.0400391, "cover": 1473.52893, "children": [
          { "nodeid": 19, "depth": 4, "split": "F1_19", "split_condition": 14, "yes": 37, "no": 38, "missing": 38 , "gain": 37.5593872, "cover": 786.966492, "children": [
            { "nodeid": 37, "depth": 5, "split": "F9", "split_condition": 161, "yes": 71, "no": 72, "missing": 72 , "gain": 13.39505, "cover": 615.777771, "children": [
              { "nodeid": 71, "leaf": -0.220361099 , "cover": 266.82605 }, 
              { "nodeid": 72, "leaf": -0.312208891 , "cover": 348.951752 }
            ]}, 
            { "nodeid": 38, "depth": 5, "split": "F4", "split_condition": 0.0609756112, "yes": 73, "no": 74, "missing": 74 , "gain": 39.63414, "cover": 171.18869, "children": [
              { "nodeid": 73, "leaf": -0.250638634 , "cover": 88.9818115 }, 
              { "nodeid": 74, "leaf": 0.0371216126 , "cover": 82.2068787 }
            ]}
          ]}, 
          { "nodeid": 20, "depth": 4, "split": "F1_6", "split_condition": 14, "yes": 39, "no": 40, "missing": 40 , "gain": 7.831604, "cover": 686.562439, "children": [
            { "nodeid": 39, "depth": 5, "split": "F1_20", "split_condition": 2, "yes": 75, "no": 76, "missing": 76 , "gain": 17.7868042, "cover": 36.3759842, "children": [
              { "nodeid": 75, "leaf": -0.289961904 , "cover": 29.2669392 }, 
              { "nodeid": 76, "leaf": 0.215689823 , "cover": 7.10904503 }
            ]}, 
            { "nodeid": 40, "depth": 5, "split": "F10", "split_condition": 0.0131578948, "yes": 77, "no": 78, "missing": 78 , "gain": 1.8347168, "cover": 650.186462, "children": [
              { "nodeid": 77, "leaf": -0.0104035027 , "cover": 1.58171797 }, 
              { "nodeid": 78, "leaf": -0.340643585 , "cover": 648.604736 }
            ]}
          ]}
        ]}, 
        { "nodeid": 10, "depth": 3, "split": "F9", "split_condition": 106, "yes": 21, "no": 22, "missing": 22 , "gain": 36.1057663, "cover": 336.0914, "children": [
          { "nodeid": 21, "depth": 4, "split": "F9", "split_condition": 44, "yes": 41, "no": 42, "missing": 42 , "gain": 28.5977306, "cover": 215.978653, "children": [
            { "nodeid": 41, "depth": 5, "split": "F1_7", "split_condition": 3, "yes": 79, "no": 80, "missing": 80 , "gain": 13.9131908, "cover": 80.9222794, "children": [
              { "nodeid": 79, "leaf": 0.16422233 , "cover": 9.97436047 }, 
              { "nodeid": 80, "leaf": -0.201846942 , "cover": 70.9479218 }
            ]}, 
            { "nodeid": 42, "depth": 5, "split": "F4", "split_condition": 0.126760557, "yes": 81, "no": 82, "missing": 82 , "gain": 39.3437462, "cover": 135.056366, "children": [
              { "nodeid": 81, "leaf": -0.157346159 , "cover": 45.0977745 }, 
              { "nodeid": 82, "leaf": 0.183091253 , "cover": 89.9585953 }
            ]}
          ]}, 
          { "nodeid": 22, "depth": 4, "split": "F3", "split_condition": 0.276315778, "yes": 43, "no": 44, "missing": 44 , "gain": 11.8843842, "cover": 120.112762, "children": [
            { "nodeid": 43, "depth": 5, "split": "F1_22", "split_condition": 24, "yes": 83, "no": 84, "missing": 84 , "gain": 7.16472626, "cover": 112.470276, "children": [
              { "nodeid": 83, "leaf": -0.257798195 , "cover": 109.263374 }, 
              { "nodeid": 84, "leaf": 0.159050748 , "cover": 3.20690084 }
            ]}, 
            { "nodeid": 44, "depth": 5, "split": "F1_8", "split_condition": 6, "yes": 85, "no": 86, "missing": 86 , "gain": 8.02643967, "cover": 7.64248323, "children": [
              { "nodeid": 85, "leaf": -0.298801512 , "cover": 1.97513831 }, 
              { "nodeid": 86, "leaf": 0.29981187 , "cover": 5.66734505 }
            ]}
          ]}
        ]}
      ]}
    ]}, 
    { "nodeid": 2, "depth": 1, "split": "F1_0", "split_condition": 26, "yes": 5, "no": 6, "missing": 6 , "gain": 1473.4281, "cover": 2649.67529, "children": [
      { "nodeid": 5, "depth": 2, "split": "F1_11", "split_condition": 1, "yes": 11, "no": 12, "missing": 12 , "gain": 0.805175781, "cover": 2062.75, "children": [
        { "nodeid": 11, "depth": 3, "split": "F1_0", "split_condition": 4, "yes": 23, "no": 24, "missing": 24 , "gain": 7.67300415, "cover": 91.0674973, "children": [
          { "nodeid": 23, "depth": 4, "split": "F1_1", "split_condition": 9, "yes": 45, "no": 46, "missing": 46 , "gain": 9.04365349, "cover": 18.8222523, "children": [
            { "nodeid": 45, "depth": 5, "split": "F1_3", "split_condition": 16, "yes": 87, "no": 88, "missing": 88 , "gain": 5.1926055, "cover": 9.92854691, "children": [
              { "nodeid": 87, "leaf": -0.205114767 , "cover": 6.96761942 }, 
              { "nodeid": 88, "leaf": 0.217231765 , "cover": 2.96092749 }
            ]}, 
            { "nodeid": 46, "leaf": 0.328703791 , "cover": 8.89370537 }
          ]}, 
          { "nodeid": 24, "leaf": 0.3489604 , "cover": 72.2452469 }
        ]}, 
        { "nodeid": 12, "leaf": 0.351579219 , "cover": 1971.6825 }
      ]}, 
      { "nodeid": 6, "depth": 2, "split": "F1_14", "split_condition": 6, "yes": 13, "no": 14, "missing": 14 , "gain": 47.9435577, "cover": 586.925293, "children": [
        { "nodeid": 13, "depth": 3, "split": "F1_89", "split_condition": 1, "yes": 25, "no": 26, "missing": 26 , "gain": 24.6386414, "cover": 418.286224, "children": [
          { "nodeid": 25, "depth": 4, "split": "F1_15", "split_condition": 66, "yes": 47, "no": 48, "missing": 48 , "gain": 17.2323608, "cover": 412.326233, "children": [
            { "nodeid": 47, "depth": 5, "split": "F1_5", "split_condition": 71, "yes": 89, "no": 90, "missing": 90 , "gain": 14.6277466, "cover": 405.032501, "children": [
              { "nodeid": 89, "leaf": -0.265406281 , "cover": 402.291656 }, 
              { "nodeid": 90, "leaf": 0.345694512 , "cover": 2.74084139 }
            ]}, 
            { "nodeid": 48, "depth": 5, "split": "F1_9", "split_condition": 17, "yes": 91, "no": 92, "missing": 92 , "gain": 7.46017933, "cover": 7.29373169, "children": [
              { "nodeid": 91, "leaf": 0.347812891 , "cover": 5.44972754 }, 
              { "nodeid": 92, "leaf": -0.248589337 , "cover": 1.84400415 }
            ]}
          ]}, 
          { "nodeid": 26, "depth": 4, "split": "F1_57", "split_condition": 25, "yes": 49, "no": 50, "missing": 50 , "gain": 0.144983292, "cover": 5.95997334, "children": [
            { "nodeid": 49, "leaf": 0.0919213891 , "cover": 1.10199499 }, 
            { "nodeid": 50, "leaf": 0.352662295 , "cover": 4.85797834 }
          ]}
        ]}, 
        { "nodeid": 14, "depth": 3, "split": "F4", "split_condition": 0.218181819, "yes": 27, "no": 28, "missing": 28 , "gain": 33.4058189, "cover": 168.639084, "children": [
          { "nodeid": 27, "depth": 4, "split": "F1_0", "split_condition": 54, "yes": 51, "no": 52, "missing": 52 , "gain": 22.9744396, "cover": 116.56694, "children": [
            { "nodeid": 51, "depth": 5, "split": "F1_1", "split_condition": 11, "yes": 93, "no": 94, "missing": 94 , "gain": 12.2391653, "cover": 24.3598232, "children": [
              { "nodeid": 93, "leaf": 0.373474091 , "cover": 8.92885971 }, 
              { "nodeid": 94, "leaf": -0.0507639498 , "cover": 15.4309626 }
            ]}, 
            { "nodeid": 52, "depth": 5, "split": "F1_2", "split_condition": 19, "yes": 95, "no": 96, "missing": 96 , "gain": 10.6680946, "cover": 92.2071152, "children": [
              { "nodeid": 95, "leaf": -0.0878088623 , "cover": 38.9733124 }, 
              { "nodeid": 96, "leaf": -0.296672136 , "cover": 53.2338066 }
            ]}
          ]}, 
          { "nodeid": 28, "depth": 4, "split": "F1_5", "split_condition": 19, "yes": 53, "no": 54, "missing": 54 , "gain": 13.5986853, "cover": 52.0721436, "children": [
            { "nodeid": 53, "depth": 5, "split": "F1_4", "split_condition": 15, "yes": 97, "no": 98, "missing": 98 , "gain": 12.2285252, "cover": 37.9720421, "children": [
              { "nodeid": 97, "leaf": 0.0157414638 , "cover": 14.4007473 }, 
              { "nodeid": 98, "leaf": 0.365036011 , "cover": 23.5712948 }
            ]}, 
            { "nodeid": 54, "depth": 5, "split": "F1_3", "split_condition": 14, "yes": 99, "no": 100, "missing": 100 , "gain": 10.3254776, "cover": 14.1001024, "children": [
              { "nodeid": 99, "leaf": -0.26764223 , "cover": 9.67388439 }, 
              { "nodeid": 100, "leaf": 0.243261442 , "cover": 4.42621756 }
            ]}
          ]}
        ]}
      ]}
    ]}
  ]},
  { "nodeid": 0, "depth": 0, "split": "F1_0", "split_condition": 3, "yes": 1, "no": 2, "missing": 2 , "gain": 1620.85217, "cover": 6246.50537, "children": [
    { "nodeid": 1, "depth": 1, "split": "F15", "split_condition": 0.00999999978, "yes": 3, "no": 4, "missing": 4 , "gain": 306.246948, "cover": 4152.33447, "children": [
      { "nodeid": 3, "depth": 2, "split": "F9", "split_condition": 86, "yes": 7, "no": 8, "missing": 8 , "gain": 119.383942, "cover": 2641.29565, "children": [
        { "nodeid": 7, "depth": 3, "split": "F1_77", "split_condition": 2, "yes": 15, "no": 16, "missing": 16 , "gain": 93.4926529, "cover": 2176.76807, "children": [
          { "nodeid": 15, "depth": 4, "split": "F1_15", "split_condition": 7, "yes": 31, "no": 32, "missing": 32 , "gain": 70.9724884, "cover": 1963.45837, "children": [
            { "nodeid": 31, "depth": 5, "split": "F1_9", "split_condition": 67, "yes": 57, "no": 58, "missing": 58 , "gain": 47.7354889, "cover": 959.301147, "children": [
              { "nodeid": 57, "leaf": -0.107777745 , "cover": 932.041199 }, 
              { "nodeid": 58, "leaf": 0.288411409 , "cover": 27.2599621 }
            ]}, 
            { "nodeid": 32, "depth": 5, "split": "F1_23", "split_condition": 78, "yes": 59, "no": 60, "missing": 60 , "gain": 56.6737709, "cover": 1004.15723, "children": [
              { "nodeid": 59, "leaf": 0.0288931821 , "cover": 981.353699 }, 
              { "nodeid": 60, "leaf": -0.439600736 , "cover": 22.8035526 }
            ]}
          ]}, 
          { "nodeid": 16, "depth": 4, "split": "F1_20", "split_condition": 68, "yes": 33, "no": 34, "missing": 34 , "gain": 45.8421097, "cover": 213.309708, "children": [
            { "nodeid": 33, "depth": 5, "split": "F1_65", "split_condition": 84, "yes": 61, "no": 62, "missing": 62 , "gain": 35.6871948, "cover": 179.292603, "children": [
              { "nodeid": 61, "leaf": 0.260033548 , "cover": 171.597565 }, 
              { "nodeid": 62, "leaf": -0.367994189 , "cover": 7.69502878 }
            ]}, 
            { "nodeid": 34, "depth": 5, "split": "F1_150", "split_condition": 2, "yes": 63, "no": 64, "missing": 64 , "gain": 35.2260971, "cover": 34.0171051, "children": [
              { "nodeid": 63, "leaf": -0.292869568 , "cover": 27.5931911 }, 
              { "nodeid": 64, "leaf": 0.442931324 , "cover": 6.42391396 }
            ]}
          ]}
        ]}, 
        { "nodeid": 8, "depth": 3, "split": "F3", "split_condition": 0.170212761, "yes": 17, "no": 18, "missing": 18 , "gain": 55.776123, "cover": 464.527588, "children": [
          { "nodeid": 17, "depth": 4, "split": "F1_21", "split_condition": 21, "yes": 35, "no": 36, "missing": 36 , "gain": 27.1682281, "cover": 412.455322, "children": [
            { "nodeid": 35, "depth": 5, "split": "F3", "split_condition": 0.0516129024, "yes": 65, "no": 66, "missing": 66 , "gain": 12.3442993, "cover": 383.505219, "children": [
              { "nodeid": 65, "leaf": -0.291306555 , "cover": 213.696198 }, 
              { "nodeid": 66, "leaf": -0.180414379 , "cover": 169.809021 }
            ]}, 
            { "nodeid": 36, "depth": 5, "split": "F3", "split_condition": 0.0470588244, "yes": 67, "no": 68, "missing": 68 , "gain": 16.2749462, "cover": 28.9501076, "children": [
              { "nodeid": 67, "leaf": -0.266564846 , "cover": 8.73317528 }, 
              { "nodeid": 68, "leaf": 0.202470958 , "cover": 20.2169323 }
            ]}
          ]}, 
          { "nodeid": 18, "depth": 4, "split": "F1_1", "split_condition": 16, "yes": 37, "no": 38, "missing": 38 , "gain": 16.3128986, "cover": 52.0722809, "children": [
            { "nodeid": 37, "depth": 5, "split": "F1_53", "split_condition": 21, "yes": 69, "no": 70, "missing": 70 , "gain": 19.6084175, "cover": 34.4023743, "children": [
              { "nodeid": 69, "leaf": -0.107717544 , "cover": 29.9728565 }, 
              { "nodeid": 70, "leaf": 0.51039362 , "cover": 4.42951965 }
            ]}, 
            { "nodeid": 38, "depth": 5, "split": "F12", "split_condition": 0.105769232, "yes": 71, "no": 72, "missing": 72 , "gain": 3.78317451, "cover": 17.6699047, "children": [
              { "nodeid": 71, "leaf": 0.474286199 , "cover": 8.27418327 }, 
              { "nodeid": 72, "leaf": 0.172958672 , "cover": 9.39572144 }
            ]}
          ]}
        ]}
      ]}, 
      { "nodeid": 4, "depth": 2, "split": "F3", "split_condition": 0.097560972, "yes": 9, "no": 10, "missing": 10 , "gain": 95.123291, "cover": 1511.0387, "children": [
        { "nodeid": 9, "depth": 3, "split": "F1_3", "split_condition": 23, "yes": 19, "no": 20, "missing": 20 , "gain": 39.7488403, "cover": 1195.9884, "children": [
          { "nodeid": 19, "depth": 4, "split": "F1_14", "split_condition": 6, "yes": 39, "no": 40, "missing": 40 , "gain": 37.0722046, "cover": 665.397888, "children": [
            { "nodeid": 39, "depth": 5, "split": "F6", "split_condition": 0.7578125, "yes": 73, "no": 74, "missing": 74 , "gain": 7.96743774, "cover": 397.417969, "children": [
              { "nodeid": 73, "leaf": -0.222136393 , "cover": 215.721252 }, 
              { "nodeid": 74, "leaf": -0.311200917 , "cover": 181.696701 }
            ]}, 
            { "nodeid": 40, "depth": 5, "split": "F1_19", "split_condition": 64, "yes": 75, "no": 76, "missing": 76 , "gain": 28.3475494, "cover": 267.979919, "children": [
              { "nodeid": 75, "leaf": -0.154588401 , "cover": 235.705078 }, 
              { "nodeid": 76, "leaf": 0.141942635 , "cover": 32.274826 }
            ]}
          ]}, 
          { "nodeid": 20, "depth": 4, "split": "F15", "split_condition": 0.0700000003, "yes": 41, "no": 42, "missing": 42 , "gain": 8.69494629, "cover": 530.590576, "children": [
            { "nodeid": 41, "depth": 5, "split": "F1_2", "split_condition": 8, "yes": 77, "no": 78, "missing": 78 , "gain": 1.64577925, "cover": 2.1185658, "children": [
              { "nodeid": 77, "leaf": -0.0511271805 , "cover": 1.03169978 }, 
              { "nodeid": 78, "leaf": 0.370488048 , "cover": 1.08686614 }
            ]}, 
            { "nodeid": 42, "depth": 5, "split": "F1_6", "split_condition": 12, "yes": 79, "no": 80, "missing": 80 , "gain": 6.82519531, "cover": 528.471985, "children": [
              { "nodeid": 79, "leaf": -0.143825218 , "cover": 21.5165291 }, 
              { "nodeid": 80, "leaf": -0.326027602 , "cover": 506.955475 }
            ]}
          ]}
        ]}, 
        { "nodeid": 10, "depth": 3, "split": "F1_17", "split_condition": 3, "yes": 21, "no": 22, "missing": 22 , "gain": 26.1957989, "cover": 315.050293, "children": [
          { "nodeid": 21, "depth": 4, "split": "F1_2", "split_condition": 2, "yes": 43, "no": 44, "missing": 44 , "gain": 9.40158463, "cover": 140.812927, "children": [
            { "nodeid": 43, "depth": 5, "split": "F3", "split_condition": 0.181818187, "yes": 81, "no": 82, "missing": 82 , "gain": 4.05942202, "cover": 13.9546432, "children": [
              { "nodeid": 81, "leaf": -0.0899095908 , "cover": 7.05779076 }, 
              { "nodeid": 82, "leaf": 0.214379072 , "cover": 6.89685249 }
            ]}, 
            { "nodeid": 44, "depth": 5, "split": "F4", "split_condition": 0.134328365, "yes": 83, "no": 84, "missing": 84 , "gain": 5.67232132, "cover": 126.858292, "children": [
              { "nodeid": 83, "leaf": -0.271365881 , "cover": 48.6759987 }, 
              { "nodeid": 84, "leaf": -0.137555778 , "cover": 78.1822891 }
            ]}
          ]}, 
          { "nodeid": 22, "depth": 4, "split": "F4", "split_condition": 0.294736832, "yes": 45, "no": 46, "missing": 46 , "gain": 20.9834232, "cover": 174.237366, "children": [
            { "nodeid": 45, "depth": 5, "split": "F1_6", "split_condition": 20, "yes": 85, "no": 86, "missing": 86 , "gain": 25.3397179, "cover": 131.323059, "children": [
              { "nodeid": 85, "leaf": -0.119896434 , "cover": 103.208488 }, 
              { "nodeid": 86, "leaf": 0.196852222 , "cover": 28.1145668 }
            ]}, 
            { "nodeid": 46, "depth": 5, "split": "F1_12", "split_condition": 9, "yes": 87, "no": 88, "missing": 88 , "gain": 17.9491119, "cover": 42.9143028, "children": [
              { "nodeid": 87, "leaf": 0.448058695 , "cover": 14.5008612 }, 
              { "nodeid": 88, "leaf": 0.0448860079 , "cover": 28.4134426 }
            ]}
          ]}
        ]}
      ]}
    ]}, 
    { "nodeid": 2, "depth": 1, "split": "F1_0", "split_condition": 26, "yes": 5, "no": 6, "missing": 6 , "gain": 1033.48096, "cover": 2094.1709, "children": [
      { "nodeid": 5, "depth": 2, "split": "F1_9", "split_condition": 1, "yes": 11, "no": 12, "missing": 12 , "gain": 1.08618164, "cover": 1590.40063, "children": [
        { "nodeid": 11, "depth": 3, "split": "F1_0", "split_condition": 4, "yes": 23, "no": 24, "missing": 24 , "gain": 5.05018806, "cover": 22.8326797, "children": [
          { "nodeid": 23, "depth": 4, "split": "F1_1", "split_condition": 9, "yes": 47, "no": 48, "missing": 48 , "gain": 5.02632523, "cover": 5.85571814, "children": [
            { "nodeid": 47, "depth": 5, "split": "F11", "split_condition": 0.142857149, "yes": 89, "no": 90, "missing": 90 , "gain": 2.86557674, "cover": 3.12175989, "children": [
              { "nodeid": 89, "leaf": -0.421461523 , "cover": 1.61819232 }, 
              { "nodeid": 90, "leaf": 0.0629303232 , "cover": 1.5035677 }
            ]}, 
            { "nodeid": 48, "leaf": 0.251029402 , "cover": 2.73395824 }
          ]}, 
          { "nodeid": 24, "leaf": 0.319319129 , "cover": 16.9769611 }
        ]}, 
        { "nodeid": 12, "depth": 3, "split": "F9", "split_condition": 581, "yes": 25, "no": 26, "missing": 26 , "gain": 0.0716552734, "cover": 1567.56787, "children": [
          { "nodeid": 25, "leaf": 0.335131079 , "cover": 1563.67322 }, 
          { "nodeid": 26, "depth": 4, "split": "F1_14", "split_condition": 2, "yes": 49, "no": 50, "missing": 50 , "gain": 0.767141461, "cover": 3.89470887, "children": [
            { "nodeid": 49, "leaf": -0.0178954676 , "cover": 1.17328179 }, 
            { "nodeid": 50, "leaf": 0.246250644 , "cover": 2.72142696 }
          ]}
        ]}
      ]}, 
      { "nodeid": 6, "depth": 2, "split": "F9", "split_condition": 143, "yes": 13, "no": 14, "missing": 14 , "gain": 45.1997375, "cover": 503.770233, "children": [
        { "nodeid": 13, "depth": 3, "split": "F1_1", "split_condition": 11, "yes": 27, "no": 28, "missing": 28 , "gain": 40.2369461, "cover": 369.531219, "children": [
          { "nodeid": 27, "depth": 4, "split": "F1_0", "split_condition": 53, "yes": 51, "no": 52, "missing": 52 , "gain": 49.4875298, "cover": 76.9186249, "children": [
            { "nodeid": 51, "leaf": 0.420666873 , "cover": 25.5395508 }, 
            { "nodeid": 52, "depth": 5, "split": "F1_7", "split_condition": 23, "yes": 91, "no": 92, "missing": 92 , "gain": 10.8450518, "cover": 51.3790741, "children": [
              { "nodeid": 91, "leaf": -0.0146191372 , "cover": 42.0559311 }, 
              { "nodeid": 92, "leaf": -0.358164996 , "cover": 9.32314396 }
            ]}
          ]}, 
          { "nodeid": 28, "depth": 4, "split": "F1_6", "split_condition": 17, "yes": 53, "no": 54, "missing": 54 , "gain": 21.1599274, "cover": 292.612579, "children": [
            { "nodeid": 53, "depth": 5, "split": "F1_73", "split_condition": 4, "yes": 93, "no": 94, "missing": 94 , "gain": 14.7651215, "cover": 192.977386, "children": [
              { "nodeid": 93, "leaf": -0.230376616 , "cover": 184.850479 }, 
              { "nodeid": 94, "leaf": 0.167027682 , "cover": 8.12690258 }
            ]}, 
            { "nodeid": 54, "depth": 5, "split": "F1_14", "split_condition": 3, "yes": 95, "no": 96, "missing": 96 , "gain": 23.4817333, "cover": 99.6352005, "children": [
              { "nodeid": 95, "leaf": -0.173442975 , "cover": 54.4760475 }, 
              { "nodeid": 96, "leaf": 0.116297029 , "cover": 45.1591568 }
            ]}
          ]}
        ]}, 
        { "nodeid": 14, "depth": 3, "split": "F1_42", "split_condition": 67, "yes": 29, "no": 30, "missing": 30 , "gain": 4.35649109, "cover": 134.239014, "children": [
          { "nodeid": 29, "depth": 4, "split": "F4", "split_condition": 0.212121218, "yes": 55, "no": 56, "missing": 56 , "gain": 2.69491577, "cover": 132.93399, "children": [
            { "nodeid": 55, "depth": 5, "split": "F12", "split_condition": 90.25, "yes": 97, "no": 98, "missing": 98 , "gain": 0.832611084, "cover": 129.230057, "children": [
              { "nodeid": 97, "leaf": -0.326006711 , "cover": 124.378601 }, 
              { "nodeid": 98, "leaf": -0.148130789 , "cover": 4.85145855 }
            ]}, 
            { "nodeid": 56, "depth": 5, "split": "F4", "split_condition": 0.236842111, "yes": 99, "no": 100, "missing": 100 , "gain": 3.327847, "cover": 3.70393682, "children": [
              { "nodeid": 99, "leaf": 0.243689567 , "cover": 1.27337003 }, 
              { "nodeid": 100, "leaf": -0.22575216 , "cover": 2.43056679 }
            ]}
          ]}, 
          { "nodeid": 30, "leaf": 0.149850577 , "cover": 1.30502176 }
        ]}
      ]}
    ]}
  ]},
  { "nodeid": 0, "depth": 0, "split": "F1_0", "split_condition": 3, "yes": 1, "no": 2, "missing": 2 , "gain": 1060.12598, "cover": 5453.06934, "children": [
    { "nodeid": 1, "depth": 1, "split": "F15", "split_condition": 0.00999999978, "yes": 3, "no": 4, "missing": 4 , "gain": 218.73584, "cover": 3802.6521, "children": [
      { "nodeid": 3, "depth": 2, "split": "F1_1", "split_condition": 16, "yes": 7, "no": 8, "missing": 8 , "gain": 85.9945984, "cover": 2528.95312, "children": [
        { "nodeid": 7, "depth": 3, "split": "F1_9", "split_condition": 67, "yes": 15, "no": 16, "missing": 16 , "gain": 75.1542358, "cover": 1776.13159, "children": [
          { "nodeid": 15, "depth": 4, "split": "F6", "split_condition": 0.466666669, "yes": 29, "no": 30, "missing": 30 , "gain": 68.6693573, "cover": 1691.93872, "children": [
            { "nodeid": 29, "depth": 5, "split": "F1_1", "split_condition": 12, "yes": 55, "no": 56, "missing": 56 , "gain": 89.8834152, "cover": 1085.94958, "children": [
              { "nodeid": 55, "leaf": 0.030550018 , "cover": 652.080261 }, 
              { "nodeid": 56, "leaf": -0.145503774 , "cover": 433.869324 }
            ]}, 
            { "nodeid": 30, "depth": 5, "split": "F1_56", "split_condition": 26, "yes": 57, "no": 58, "missing": 58 , "gain": 36.5974884, "cover": 605.989136, "children": [
              { "nodeid": 57, "leaf": -0.180198833 , "cover": 584.236267 }, 
              { "nodeid": 58, "leaf": 0.209218219 , "cover": 21.7528915 }
            ]}
          ]}, 
          { "nodeid": 16, "depth": 4, "split": "F1_2", "split_condition": 20, "yes": 31, "no": 32, "missing": 32 , "gain": 60.9965324, "cover": 84.192894, "children": [
            { "nodeid": 31, "depth": 5, "split": "F1_6", "split_condition": 19, "yes": 59, "no": 60, "missing": 60 , "gain": 51.0859413, "cover": 35.7498169, "children": [
              { "nodeid": 59, "leaf": -0.331398964 , "cover": 24.5432396 }, 
              { "nodeid": 60, "leaf": 0.415370345 , "cover": 11.2065773 }
            ]}, 
            { "nodeid": 32, "depth": 5, "split": "F12", "split_condition": 5.33333349, "yes": 61, "no": 62, "missing": 62 , "gain": 8.16635132, "cover": 48.4430771, "children": [
              { "nodeid": 61, "leaf": 0.440938294 , "cover": 47.1271744 }, 
              { "nodeid": 62, "leaf": -0.200014144 , "cover": 1.31590521 }
            ]}
          ]}
        ]}, 
        { "nodeid": 8, "depth": 3, "split": "F1_0", "split_condition": 2, "yes": 17, "no": 18, "missing": 18 , "gain": 245.78949, "cover": 752.821411, "children": [
          { "nodeid": 17, "depth": 4, "split": "F1_10", "split_condition": 67, "yes": 33, "no": 34, "missing": 34 , "gain": 48.7722015, "cover": 649.067749, "children": [
            { "nodeid": 33, "depth": 5, "split": "F1_20", "split_condition": 14, "yes": 63, "no": 64, "missing": 64 , "gain": 44.3406181, "cover": 622.205627, "children": [
              { "nodeid": 63, "leaf": -0.0927741379 , "cover": 416.011078 }, 
              { "nodeid": 64, "leaf": 0.0770483539 , "cover": 206.19458 }
            ]}, 
            { "nodeid": 34, "depth": 5, "split": "F1_3", "split_condition": 53, "yes": 65, "no": 66, "missing": 66 , "gain": 17.0656891, "cover": 26.8621082, "children": [
              { "nodeid": 65, "leaf": 0.43600747 , "cover": 25.0126743 }, 
              { "nodeid": 66, "leaf": -0.369796276 , "cover": 1.84943366 }
            ]}
          ]}, 
          { "nodeid": 18, "depth": 4, "split": "F1_1", "split_condition": 26, "yes": 35, "no": 36, "missing": 36 , "gain": 86.4214783, "cover": 103.753639, "children": [
            { "nodeid": 35, "depth": 5, "split": "F1_25", "split_condition": 1, "yes": 67, "no": 68, "missing": 68 , "gain": 2.44476318, "cover": 93.384697, "children": [
              { "nodeid": 67, "leaf": 0.658593714 , "cover": 34.5308609 }, 
              { "nodeid": 68, "leaf": 0.503225088 , "cover": 58.8538399 }
            ]}, 
            { "nodeid": 36, "depth": 5, "split": "F1_2", "split_condition": 5, "yes": 69, "no": 70, "missing": 70 , "gain": 6.54165936, "cover": 10.3689432, "children": [
              { "nodeid": 69, "leaf": 0.131585717 , "cover": 1.88028288 }, 
              { "nodeid": 70, "leaf": -0.424584478 , "cover": 8.48866081 }
            ]}
          ]}
        ]}
      ]}, 
      { "nodeid": 4, "depth": 2, "split": "F3", "split_condition": 0.0810810775, "yes": 9, "no": 10, "missing": 10 , "gain": 78.9929199, "cover": 1273.69897, "children": [
        { "nodeid": 9, "depth": 3, "split": "F1_1", "split_condition": 15, "yes": 19, "no": 20, "missing": 20 , "gain": 39.4431152, "cover": 931.782654, "children": [
          { "nodeid": 19, "depth": 4, "split": "F1_3", "split_condition": 22, "yes": 37, "no": 38, "missing": 38 , "gain": 20.6583252, "cover": 748.864258, "children": [
            { "nodeid": 37, "depth": 5, "split": "F9", "split_condition": 81, "yes": 71, "no": 72, "missing": 72 , "gain": 20.1990814, "cover": 362.706726, "children": [
              { "nodeid": 71, "leaf": -0.0939777792 , "cover": 99.017662 }, 
              { "nodeid": 72, "leaf": -0.254148334 , "cover": 263.689087 }
            ]}, 
            { "nodeid": 38, "depth": 5, "split": "F5", "split_condition": 0.00344827585, "yes": 73, "no": 74, "missing": 74 , "gain": 9.09088135, "cover": 386.157532, "children": [
              { "nodeid": 73, "leaf": 0.0748050809 , "cover": 5.04158163 }, 
              { "nodeid": 74, "leaf": -0.317512155 , "cover": 381.115967 }
            ]}
          ]}, 
          { "nodeid": 20, "depth": 4, "split": "F1_21", "split_condition": 2, "yes": 39, "no": 40, "missing": 40 , "gain": 39.5772514, "cover": 182.918396, "children": [
            { "nodeid": 39, "depth": 5, "split": "F1_6", "split_condition": 67, "yes": 75, "no": 76, "missing": 76 , "gain": 9.48693848, "cover": 119.365791, "children": [
              { "nodeid": 75, "leaf": -0.218822733 , "cover": 118.011597 }, 
              { "nodeid": 76, "leaf": 0.404493451 , "cover": 1.35419774 }
            ]}, 
            { "nodeid": 40, "depth": 5, "split": "F12", "split_condition": 17, "yes": 77, "no": 78, "missing": 78 , "gain": 37.1319733, "cover": 63.5526085, "children": [
              { "nodeid": 77, "leaf": -0.0556421876 , "cover": 46.836277 }, 
              { "nodeid": 78, "leaf": 0.453298181 , "cover": 16.7163315 }
            ]}
          ]}
        ]}, 
        { "nodeid": 10, "depth": 3, "split": "F9", "split_condition": 106, "yes": 21, "no": 22, "missing": 22 , "gain": 23.4901962, "cover": 341.916321, "children": [
          { "nodeid": 21, "depth": 4, "split": "F9", "split_condition": 29, "yes": 41, "no": 42, "missing": 42 , "gain": 19.5634232, "cover": 216.876221, "children": [
            { "nodeid": 41, "depth": 5, "split": "F6", "split_condition": 0.203703701, "yes": 79, "no": 80, "missing": 80 , "gain": 8.01255226, "cover": 36.7688446, "children": [
              { "nodeid": 79, "leaf": -0.000464801531 , "cover": 12.1931067 }, 
              { "nodeid": 80, "leaf": -0.296033442 , "cover": 24.575737 }
            ]}, 
            { "nodeid": 42, "depth": 5, "split": "F4", "split_condition": 0.148148149, "yes": 81, "no": 82, "missing": 82 , "gain": 16.3147068, "cover": 180.107376, "children": [
              { "nodeid": 81, "leaf": -0.0759264678 , "cover": 69.9377823 }, 
              { "nodeid": 82, "leaf": 0.108295426 , "cover": 110.169586 }
            ]}
          ]}, 
          { "nodeid": 22, "depth": 4, "split": "F1_14", "split_condition": 24, "yes": 43, "no": 44, "missing": 44 , "gain": 9.00841904, "cover": 125.0401, "children": [
            { "nodeid": 43, "depth": 5, "split": "F12", "split_condition": 0.0425531901, "yes": 83, "no": 84, "missing": 84 , "gain": 6.14945984, "cover": 107.866348, "children": [
              { "nodeid": 83, "leaf": 0.177435219 , "cover": 3.06694531 }, 
              { "nodeid": 84, "leaf": -0.211583331 , "cover": 104.7994 }
            ]}, 
            { "nodeid": 44, "depth": 5, "split": "F1_8", "split_condition": 10, "yes": 85, "no": 86, "missing": 86 , "gain": 7.71024418, "cover": 17.1737556, "children": [
              { "nodeid": 85, "leaf": 0.241713479 , "cover": 7.63153505 }, 
              { "nodeid": 86, "leaf": -0.140954673 , "cover": 9.54222012 }
            ]}
          ]}
        ]}
      ]}
    ]}, 
    { "nodeid": 2, "depth": 1, "split": "F1_0", "split_condition": 26, "yes": 5, "no": 6, "missing": 6 , "gain": 743.490112, "cover": 1650.41736, "children": [
      { "nodeid": 5, "depth": 2, "split": "F1_11", "split_condition": 1, "yes": 11, "no": 12, "missing": 12 , "gain": 1.93029785, "cover": 1214.30847, "children": [
        { "nodeid": 11, "depth": 3, "split": "F1_0", "split_condition": 4, "yes": 23, "no": 24, "missing": 24 , "gain": 8.10778046, "cover": 57.6933327, "children": [
          { "nodeid": 23, "depth": 4, "split": "F9", "split_condition": 233, "yes": 45, "no": 46, "missing": 46 , "gain": 6.54577971, "cover": 14.8624325, "children": [
            { "nodeid": 45, "depth": 5, "split": "F11", "split_condition": 0.338983059, "yes": 87, "no": 88, "missing": 88 , "gain": 1.85322523, "cover": 11.3511248, "children": [
              { "nodeid": 87, "leaf": 0.0494717732 , "cover": 6.48140144 }, 
              { "nodeid": 88, "leaf": 0.291766554 , "cover": 4.86972284 }
            ]}, 
            { "nodeid": 46, "depth": 5, "split": "F10", "split_condition": 0.6813187, "yes": 89, "no": 90, "missing": 90 , "gain": 0.867240191, "cover": 3.51130819, "children": [
              { "nodeid": 89, "leaf": -0.328686595 , "cover": 2.43097568 }, 
              { "nodeid": 90, "leaf": -0.0104166344 , "cover": 1.08033228 }
            ]}
          ]}, 
          { "nodeid": 24, "leaf": 0.319853663 , "cover": 42.8309021 }
        ]}, 
        { "nodeid": 12, "leaf": 0.325229526 , "cover": 1156.61523 }
      ]}, 
      { "nodeid": 6, "depth": 2, "split": "F9", "split_condition": 157, "yes": 13, "no": 14, "missing": 14 , "gain": 37.0473404, "cover": 436.108856, "children": [
        { "nodeid": 13, "depth": 3, "split": "F1_1", "split_condition": 14, "yes": 25, "no": 26, "missing": 26 , "gain": 27.5714321, "cover": 343.029297, "children": [
          { "nodeid": 25, "depth": 4, "split": "F1_0", "split_condition": 54, "yes": 47, "no": 48, "missing": 48 , "gain": 38.9877777, "cover": 86.7904282, "children": [
            { "nodeid": 47, "depth": 5, "split": "F1_9", "split_condition": 1, "yes": 91, "no": 92, "missing": 92 , "gain": 1.71305084, "cover": 25.7488861, "children": [
              { "nodeid": 91, "leaf": 0.0525082834 , "cover": 1.88672709 }, 
              { "nodeid": 92, "leaf": 0.380874902 , "cover": 23.8621597 }
            ]}, 
            { "nodeid": 48, "depth": 5, "split": "F1_10", "split_condition": 4, "yes": 93, "no": 94, "missing": 94 , "gain": 9.20423317, "cover": 61.0415421, "children": [
              { "nodeid": 93, "leaf": -0.213488176 , "cover": 24.2163219 }, 
              { "nodeid": 94, "leaf": 0.0212576073 , "cover": 36.8252182 }
            ]}
          ]}, 
          { "nodeid": 26, "depth": 4, "split": "F1_1", "split_condition": 16, "yes": 49, "no": 50, "missing": 50 , "gain": 20.206543, "cover": 256.238861, "children": [
            { "nodeid": 49, "depth": 5, "split": "F1_78", "split_condition": 1, "yes": 95, "no": 96, "missing": 96 , "gain": 11.2457085, "cover": 64.0298157, "children": [
              { "nodeid": 95, "leaf": -0.307405382 , "cover": 61.7816277 }, 
              { "nodeid": 96, "leaf": 0.286862671 , "cover": 2.24818993 }
            ]}, 
            { "nodeid": 50, "depth": 5, "split": "F1_1", "split_condition": 23, "yes": 97, "no": 98, "missing": 98 , "gain": 25.8051949, "cover": 192.209045, "children": [
              { "nodeid": 97, "leaf": 0.1216214 , "cover": 40.7612991 }, 
              { "nodeid": 98, "leaf": -0.144992664 , "cover": 151.447739 }
            ]}
          ]}
        ]}, 
        { "nodeid": 14, "depth": 3, "split": "F12", "split_condition": 90.25, "yes": 27, "no": 28, "missing": 28 , "gain": 0.940513611, "cover": 93.0795517, "children": [
          { "nodeid": 27, "depth": 4, "split": "F4", "split_condition": 0.223684207, "yes": 51, "no": 52, "missing": 52 , "gain": 0.723381042, "cover": 88.7442322, "children": [
            { "nodeid": 51, "depth": 5, "split": "F1_7", "split_condition": 67, "yes": 99, "no": 100, "missing": 100 , "gain": 0.163719177, "cover": 86.735405, "children": [
              { "nodeid": 99, "leaf": -0.315100431 , "cover": 85.4568634 }, 
              { "nodeid": 100, "leaf": -0.0909721479 , "cover": 1.27854669 }
            ]}, 
            { "nodeid": 52, "leaf": -0.0789092928 , "cover": 2.00882745 }
          ]}, 
          { "nodeid": 28, "depth": 4, "split": "F10", "split_condition": 0.00881057233, "yes": 53, "no": 54, "missing": 54 , "gain": 2.91106796, "cover": 4.33531809, "children": [
            { "nodeid": 53, "leaf": -0.254081458 , "cover": 3.15150189 }, 
            { "nodeid": 54, "leaf": 0.183979109 , "cover": 1.18381631 }
          ]}
        ]}
      ]}
    ]}
  ]},
  { "nodeid": 0, "depth": 0, "split": "F1_0", "split_condition": 3, "yes": 1, "no": 2, "missing": 2 , "gain": 695.70282, "cover": 4822.13916, "children": [
    { "nodeid": 1, "depth": 1, "split": "F15", "split_condition": 0.0546875, "yes": 3, "no": 4, "missing": 4 , "gain": 152.914108, "cover": 3519.146, "children": [
      { "nodeid": 3, "depth": 2, "split": "F9", "split_condition": 86, "yes": 7, "no": 8, "missing": 8 , "gain": 62.0932159, "cover": 2437.81836, "children": [
        { "nodeid": 7, "depth": 3, "split": "F10", "split_condition": 0.793103456, "yes": 15, "no": 16, "missing": 16 , "gain": 63.5417633, "cover": 2055.9978, "children": [
          { "nodeid": 15, "depth": 4, "split": "F1_15", "split_condition": 7, "yes": 31, "no": 32, "missing": 32 , "gain": 47.7440186, "cover": 1734.21655, "children": [
            { "nodeid": 31, "depth": 5, "split": "F1_13", "split_condition": 21, "yes": 61, "no": 62, "missing": 62 , "gain": 36.7411194, "cover": 810.979248, "children": [
              { "nodeid": 61, "leaf": -0.102337971 , "cover": 731.586731 }, 
              { "nodeid": 62, "leaf": 0.111523606 , "cover": 79.39254 }
            ]}, 
            { "nodeid": 32, "depth": 5, "split": "F1_3", "split_condition": 16, "yes": 63, "no": 64, "missing": 64 , "gain": 51.3973961, "cover": 923.237366, "children": [
              { "nodeid": 63, "leaf": 0.0690569654 , "cover": 610.46875 }, 
              { "nodeid": 64, "leaf": -0.0803058445 , "cover": 312.768616 }
            ]}
          ]}, 
          { "nodeid": 16, "depth": 4, "split": "F6", "split_condition": 0.0769230798, "yes": 33, "no": 34, "missing": 34 , "gain": 65.52771, "cover": 321.781097, "children": [
            { "nodeid": 33, "depth": 5, "split": "F1_10", "split_condition": 9, "yes": 65, "no": 66, "missing": 66 , "gain": 13.1173725, "cover": 65.0467834, "children": [
              { "nodeid": 65, "leaf": -0.328316092 , "cover": 22.8910027 }, 
              { "nodeid": 66, "leaf": -0.0486338884 , "cover": 42.155777 }
            ]}, 
            { "nodeid": 34, "depth": 5, "split": "F6", "split_condition": 1, "yes": 67, "no": 68, "missing": 68 , "gain": 37.2487946, "cover": 256.734314, "children": [
              { "nodeid": 67, "leaf": 0.15964897 , "cover": 246.469955 }, 
              { "nodeid": 68, "leaf": 0.720285773 , "cover": 10.2643652 }
            ]}
          ]}
        ]}, 
        { "nodeid": 8, "depth": 3, "split": "F3", "split_condition": 0.0754716992, "yes": 17, "no": 18, "missing": 18 , "gain": 37.7456512, "cover": 381.820557, "children": [
          { "nodeid": 17, "depth": 4, "split": "F11", "split_condition": 0.0909090936, "yes": 35, "no": 36, "missing": 36 , "gain": 10.9972, "cover": 224.365646, "children": [
            { "nodeid": 35, "depth": 5, "split": "F1_13", "split_condition": 15, "yes": 69, "no": 70, "missing": 70 , "gain": 15.5674896, "cover": 52.1022606, "children": [
              { "nodeid": 69, "leaf": -0.209403619 , "cover": 34.1655464 }, 
              { "nodeid": 70, "leaf": 0.12899591 , "cover": 17.9367142 }
            ]}, 
            { "nodeid": 36, "depth": 5, "split": "F5", "split_condition": 0.186046511, "yes": 71, "no": 72, "missing": 72 , "gain": 7.25871277, "cover": 172.263397, "children": [
              { "nodeid": 71, "leaf": -0.299553066 , "cover": 109.572968 }, 
              { "nodeid": 72, "leaf": -0.166392148 , "cover": 62.6904221 }
            ]}
          ]}, 
          { "nodeid": 18, "depth": 4, "split": "F10", "split_condition": 0.283333331, "yes": 37, "no": 38, "missing": 38 , "gain": 22.2387791, "cover": 157.454895, "children": [
            { "nodeid": 37, "depth": 5, "split": "F1_19", "split_condition": 9, "yes": 73, "no": 74, "missing": 74 , "gain": 12.3226204, "cover": 35.6958199, "children": [
              { "nodeid": 73, "leaf": 0.0411402732 , "cover": 22.536232 }, 
              { "nodeid": 74, "leaf": 0.400371104 , "cover": 13.1595879 }
            ]}, 
            { "nodeid": 38, "depth": 5, "split": "F5", "split_condition": 0.0212765951, "yes": 75, "no": 76, "missing": 76 , "gain": 36.0577545, "cover": 121.759079, "children": [
              { "nodeid": 75, "leaf": 0.275715351 , "cover": 19.8302212 }, 
              { "nodeid": 76, "leaf": -0.157572418 , "cover": 101.928864 }
            ]}
          ]}
        ]}
      ]}, 
      { "nodeid": 4, "depth": 2, "split": "F1_3", "split_condition": 23, "yes": 9, "no": 10, "missing": 10 , "gain": 70.2513428, "cover": 1081.32764, "children": [
        { "nodeid": 9, "depth": 3, "split": "F9", "split_condition": 155, "yes": 19, "no": 20, "missing": 20 , "gain": 59.5296326, "cover": 743.933411, "children": [
          { "nodeid": 19, "depth": 4, "split": "F1_18", "split_condition": 1, "yes": 39, "no": 40, "missing": 40 , "gain": 34.8956146, "cover": 467.914825, "children": [
            { "nodeid": 39, "depth": 5, "split": "F12", "split_condition": 48.3333321, "yes": 77, "no": 78, "missing": 78 , "gain": 8.67773819, "cover": 196.692566, "children": [
              { "nodeid": 77, "leaf": -0.150006026 , "cover": 192.610748 }, 
              { "nodeid": 78, "leaf": 0.252088815 , "cover": 4.08183098 }
            ]}, 
            { "nodeid": 40, "depth": 5, "split": "F1_1", "split_condition": 16, "yes": 79, "no": 80, "missing": 80 , "gain": 31.2884884, "cover": 271.222229, "children": [
              { "nodeid": 79, "leaf": -0.0355809331 , "cover": 200.261246 }, 
              { "nodeid": 80, "leaf": 0.194930151 , "cover": 70.9609985 }
            ]}
          ]}, 
          { "nodeid": 20, "depth": 4, "split": "F1_12", "split_condition": 24, "yes": 41, "no": 42, "missing": 42 , "gain": 16.1188049, "cover": 276.018616, "children": [
            { "nodeid": 41, "depth": 5, "split": "F1_67", "split_condition": 5, "yes": 81, "no": 82, "missing": 82 , "gain": 10.742157, "cover": 247.318268, "children": [
              { "nodeid": 81, "leaf": -0.256739974 , "cover": 238.548889 }, 
              { "nodeid": 82, "leaf": 0.0739477575 , "cover": 8.76937199 }
            ]}, 
            { "nodeid": 42, "depth": 5, "split": "F9", "split_condition": 229, "yes": 83, "no": 84, "missing": 84 , "gain": 26.3695107, "cover": 28.7003555, "children": [
              { "nodeid": 83, "leaf": 0.349834889 , "cover": 10.6048508 }, 
              { "nodeid": 84, "leaf": -0.223572209 , "cover": 18.0955048 }
            ]}
          ]}
        ]}, 
        { "nodeid": 10, "depth": 3, "split": "F1_6", "split_condition": 67, "yes": 21, "no": 22, "missing": 22 , "gain": 28.2366333, "cover": 337.394226, "children": [
          { "nodeid": 21, "depth": 4, "split": "F1_5", "split_condition": 19, "yes": 43, "no": 44, "missing": 44 , "gain": 13.295929, "cover": 332.499054, "children": [
            { "nodeid": 43, "depth": 5, "split": "F9", "split_condition": 3, "yes": 85, "no": 86, "missing": 86 , "gain": 7.20855713, "cover": 322.014008, "children": [
              { "nodeid": 85, "leaf": 0.140415803 , "cover": 2.82432842 }, 
              { "nodeid": 86, "leaf": -0.301059604 , "cover": 319.189667 }
            ]}, 
            { "nodeid": 44, "depth": 5, "split": "F9", "split_condition": 85, "yes": 87, "no": 88, "missing": 88 , "gain": 14.3839283, "cover": 10.4850492, "children": [
              { "nodeid": 87, "leaf": 0.369847268 , "cover": 5.08306885 }, 
              { "nodeid": 88, "leaf": -0.274793804 , "cover": 5.40197992 }
            ]}
          ]}, 
          { "nodeid": 22, "depth": 4, "split": "F1_40", "split_condition": 7, "yes": 45, "no": 46, "missing": 46 , "gain": 1.11205196, "cover": 4.89517212, "children": [
            { "nodeid": 45, "leaf": 0.453135461 , "cover": 3.72803044 }, 
            { "nodeid": 46, "leaf": 0.0618056878 , "cover": 1.16714191 }
          ]}
        ]}
      ]}
    ]}, 
